,0,1,2,3,4,5,6,7,8,9,10,11,12,13,14,15,16,17,18,19,20,21,22,23,24,25,26,27,28,29,30,31,32,33,34,35,36,37,38,39,40,41,42,43,44,45,46,47,48,49,50,51,52,53,54,55,56,57,58,59,60,61,62,63
ADIPOGENESIS,-95.57060092569999,-127.9825715162,-79.8004105265,45.7364526475,-24.0901485396,-46.1454460062,-35.390462682300004,-105.19247636,-66.389840975,59.57184946357001,-37.93106959799999,26.3648105002,21.917894868,-85.3659499105,47.7085301126,4.670488578900001,-18.18253837399,48.86916208337,-2.7514398384000014,3.3571211330000006,-62.62514897849999,-42.0255475577,-99.35155782749999,-152.534609294,24.283458832999997,-137.45420132520002,41.03603978589,-11.517727969700003,2.089889421799999,-10.497347337999996,3.3538997137000033,18.038998477600007,-9.730494010700003,-31.266117959300004,-87.43201645053,-16.137788639399997,-24.473971958699998,-107.424131931,224.277555281,-69.9327659853,17.1283399946,123.386772227,-15.464587804500002,72.69325031170001,42.95253382,-20.422795021717,58.95349454776999,193.70984808210002,-62.243290229,-33.7338067913,10.388786558,109.52881564040001,36.9540190565,115.06759501799999,67.1165060532,33.4647346087,-80.59915033760001,105.07210160300001,42.9038718184,22.8705250518,65.64887395230002,37.034166901800006,105.0391699537,47.628422117499994
ALLOGRAFT_REJECTION,-189.53416808300003,-132.71769255750002,30.933212074700002,-6.3318882379999994,-85.170465483,-56.03938158800001,128.37897602200002,32.660701681000006,127.050284919,241.5546419149,-43.981485565,125.8985765869,-28.434725024,-6.4144411786000015,21.9110770083,-26.293455608,-60.01642165330001,43.355302241000004,89.24185047419999,155.501927236,-127.96716789234,23.1413563785,-40.876316560700005,25.7103176585,-65.2652262627,3.9150426060000005,-6.3229495946999945,-55.248092238,-31.6427328715,-148.2717620855,-15.339338662000001,-81.7038309649,153.8405236564,-59.098395051,109.7306908348,49.67309794329999,-6.34329281726,-21.901734662,-22.638443234100002,45.859900102640005,226.7337895214,31.528013949400002,28.0859635678,199.81467129100002,-39.07629147494001,-33.90741250488,-117.1423810919,-50.611559822,-9.844994083100001,8.604449800000001,54.5067695334,168.147919119,-33.498221128400004,112.16361659305,130.2182992387,92.72885146300001,221.961382561,-28.1356723839,35.255006177300004,68.700527892,258.6069596901,71.4105687636,39.0401406009,28.522679303
ANDROGEN_RESPONSE,-32.0619343224,-19.315900298000006,-29.268900690000002,10.152223401999999,12.148159393199997,16.368661434259995,2.0692524840000024,10.956123381400005,14.264749471000002,40.679842299300006,4.0949124239999986,-4.765857127510001,-11.15435858466,-12.929395013300002,22.825933091000003,14.378129148400003,-21.562410320899996,-23.413248405,-1.8314745811200008,35.247658156,-40.808598659000005,-21.1429273424,-23.174654087,-26.662762306999998,-7.789196627999998,-31.652276177,12.965845092999999,1.3892621575699995,0.382013694500001,-0.8026019709999989,26.081576165999998,-11.639279988999998,12.588509149499998,-20.558181311,-3.5946474299999975,22.268682715399994,-12.352695250000004,-34.104780513,39.14056881649999,-5.122871725299999,-9.445363138000001,15.268270927900003,16.336586125000004,19.904467289700005,15.486997528999998,-5.452681364000002,-14.131098847700002,37.90441118500001,-8.071508011400002,9.564819907,4.726482440000002,35.102806106,11.622516048999998,33.011031263,6.234049166000001,13.42427094,-18.146541316999997,15.460086746899998,-24.204328261,21.608918998,20.265612423839997,-4.178379788,20.294790981000002,41.2558312985
ANGIOGENESIS,-6.922751193999999,-44.801377710000004,-32.454814828,21.84353588,-33.314302005,-0.42745104800000044,14.95406787,-3.7624533089999996,2.047174401,25.693879098000004,-1.7074061849999995,10.567110565,7.0622429040000005,-12.573172246,4.895230864000001,-3.9563082000000005,-32.691804669999996,18.118153431,1.91661952,23.2132045148,-13.633797046999998,3.5801955128999996,-2.038805630000001,7.080249905999999,13.615930485,18.826941770000005,0.844505067000001,-23.553214506000003,-1.1026940190000003,21.309552145999998,-13.638942144000001,-30.117103565000004,13.73695104789,-0.36714690939999994,11.802365873600003,23.766134119999997,6.679024554000001,8.675305875,5.859266275,-5.9691936765,16.767856372199997,-5.959465969000001,1.9500041929999996,23.932312432,3.4080675230599993,-7.890654442999999,-24.898729083,3.5535071240000002,-4.023263780999999,-7.5085476064000005,-33.34258555,56.256186955000004,-2.31685269,48.4978713,15.20468892965,40.939420950999995,5.138447999400003,6.723212446,29.481074972099997,2.0311909150000003,43.287859426,-13.65131135,32.863198610000005,-30.699967858000004
APICAL_JUNCTION,-130.3370281807,-111.88172764560001,-98.71317282980002,111.721980419,-115.0423461436,-73.5320378383,9.3404816153,-27.891464608499998,55.31259306630001,128.57608155870003,-4.638342279700009,50.548117242800004,-2.8415231640999963,11.777894307200004,-61.03934561100001,-2.469088623999997,-108.36417241141999,-39.74939577600001,-8.170992987100005,237.83563340249998,-70.74639557596998,5.078121561999998,57.92275792490001,28.950535568599996,32.2815413942,126.92489276679999,29.311827157799996,24.985645455000004,58.9581150124,2.7941733200000005,27.909968835,-36.239985121000004,54.538070393,8.099387329,56.74516861199999,100.68584457813,32.2320783404,136.91146835499998,-28.148289094900008,-25.5310947284,60.50247797830001,51.2286053657,106.7265530302,122.954042636,74.0005163833,-76.4834961958,-119.5660332464,-93.06868903150001,-75.3076562175,-17.5911507713,-19.3186242256,243.7942288073,78.513639383,166.38373078930002,4.2207047259999975,191.3711156508,60.008614772,-1.4387210941999986,63.352132736200005,81.2485641615,90.18665766470002,-89.855474026,4.112970435500003,46.320568880059994
APICAL_SURFACE,-1.8212901896000013,-32.508066008,-19.368021786,8.3095256057,-22.818168435000004,10.146602876999998,-0.7179139410000002,9.999968648000001,-2.1584578239999996,17.767644410000003,0.804897774,-5.203906033499999,-6.330683754000002,-18.717483129599998,16.372545832999997,-1.0419040873999987,-9.13155930263,-1.8693443879999991,3.0590988640000005,23.558206262,4.6208657135,-0.3419782390000008,-12.63972047,-2.1424533530000005,5.662928538,-4.6058337286,6.6715718289999995,-14.263761481000001,-11.103613201,-0.9769243049999994,-2.401988956,-16.606905601,2.878550289000001,-7.648160429000001,-10.178268024399998,22.5459123377,-3.227188319,-3.3561644945000007,11.423482458000002,5.835489846000002,23.275614747000002,16.272231726000005,11.805490186000002,23.9657357966,11.254504869,1.8869060441999994,-21.130876845300005,-2.907924443,-10.64444630483,-2.8848345315999997,-8.1818379546,32.630880142,-10.935098304299999,36.82916892,3.258756261999999,28.528666715,14.333250360000001,-7.912142664,23.900500694999998,17.5450785487,23.554142348099997,0.2443371069999999,14.490841286999999,0.8475005709999979
APOPTOSIS,-221.51034769400002,-71.79075927363,-48.18297881,-5.767811675440003,-28.871656830200003,-63.1196431966,56.197000928,63.799822025210005,27.45625117887001,103.06907608900002,-41.6931055185,46.7995056627,-12.600119669000001,-12.519778782299998,15.124707289499998,13.912952711000003,-89.25054490407001,4.249661258899994,-33.23399384186,68.87823387590001,-124.10944604159998,6.831814058600001,-50.1979737445,-37.4751828,-22.713156813559998,-42.5583018935,14.428944193799998,-55.976088645999994,51.4364628193,-86.90497363200001,96.665379098,-0.991118200999999,93.580916538,10.458473578000001,69.509538643,68.3426870412,-37.93761457974,35.48307700107999,0.8419481406000049,-4.004709196499998,60.639163538000005,-41.701210477400004,-18.541855979,68.68193517510001,21.51301728406,-47.9485966653,-45.3435436247,58.355215555,38.699303426,-15.237178173830003,-55.0349657947,158.614082952,-18.622321045700005,95.98297987560001,63.451317916,46.7576360873,17.111287645000004,22.7199977274,-14.575590313999998,-11.253662439840003,68.2889707623,12.096992924999995,45.72623145370001,52.0705103571
ARAMCHOL,0.09300302,-0.89132375,-0.70474166,0.6897745,0.80419654,-0.7783083000000001,-0.5490067,0.14850937,-1.3639609,0.21283776,-0.9918754,-0.15470181,0.67259866,-1.261253,1.2869937,-0.0032316933,-0.70971805,-0.24377054,0.04310715,0.70937914,-0.2451862,-0.41998857,-0.7417895,-1.4219089,-0.5496658,-1.0993981000000002,-0.16545859,0.2783967,-0.27317506,-0.38021618,0.0651719,0.40911418,-1.5665071000000002,-0.30225426,-0.78390336,-0.87845105,-0.27648044,-2.1495554,1.7498883,-0.22270586,0.66004676,0.65423954,-0.038096834,0.6449465,-0.16467306,0.7292795999999999,0.041480087,2.49339,-0.23087932,-0.47327048,0.34765092,0.111585215,-0.9990088,0.7188763000000001,0.42109928,0.3712774,-1.6183931,0.6864886,0.47091687,-0.33524087,-0.22965232,-0.6098180000000001,1.6836400000000002,0.94069064
BILE_ACID_METABOLISM,-18.42517974946,14.199510195000002,-90.833334969,25.7523877443,25.12316168,-54.389369353,-43.05608605809999,-30.153545453000003,-67.8182010706,68.80659528147001,34.924328812,-2.2918062880000014,-20.9598494074,-38.149905659400005,81.28850466509999,52.8099762424,-1.215547249870001,34.91286819060001,59.3595573353,-9.8716845702,-30.680925139000006,-16.967138856300004,-75.903344851,-61.90859719,-1.9294254698000006,-63.544050047999995,24.688297638199998,-24.0586122499,-6.079963715000001,46.764978261500005,41.058692279,-15.7036167298,-54.16256180639999,-56.698301369000006,-6.387868414999998,-11.366796153560001,-36.43535101557,-118.48816393800001,152.515583222,-66.885465092,6.3526426303,30.77342602,-9.8668053832,43.189032299000004,-29.495991648,12.8785329159,50.1242855493,111.34233721129999,-89.96156138629999,20.587903251300002,49.10239390138,30.7680483342,-44.221327122,94.63682884600001,61.071618758,15.4355133896,-91.79396397900001,31.133320784000006,21.5158884855,-39.272606262299995,2.8748352433999997,15.5078879767,66.516449349,70.7882133837
BMS-986036,0.03986387,-0.36052445,-0.40548438,-0.25827910000000004,0.12547326,-0.4531032999999999,0.41893488,0.6963679,0.059358753,0.43938467,0.35789725,0.37828213,0.30744162,0.3420018,0.6384986999999999,-0.17567,-0.7421509,-0.38578337,-0.4666582,1.0534996,-0.4637805999999999,-0.39361835,-0.63043606,-0.090950415,-0.13065167,-0.20216584,-0.018356103,-0.16984639999999998,0.20381728,0.13101222,-0.17530982,-0.34327602,-0.26165083,0.0058481707,0.59496623,-0.045224547,-0.06909843,0.048533197,0.06922068,0.36875457,0.18581167,-0.11712501,-0.47648937,0.7891989,0.21962070000000006,0.076122664,-0.54091555,0.20689555,-0.11086852,0.070203654,-0.637498,0.5437441,-0.15013948,0.8393876,-0.18405698,0.6709786,-0.2409073,0.26059657,0.75635874,0.24345724,0.259268,-0.5943335,-0.23532797,0.6501041999999999
CENICRIVIROC,-4.9747067000000005,1.64409736,-0.429442785,2.27451375,2.32253565,-2.3456083999999997,3.6072379000000003,-2.7347573,1.39271164,0.216742867,2.06792254,1.5116778499999999,-0.82679944,-3.4737009,-0.044097064000000005,0.69598036,-0.98926238,0.9450397500000001,3.7449733,-1.55558504,0.23987833000000003,-0.229356433,-1.2952409,0.83970189,1.28749956,1.2841524,-2.2021998,-4.9519675,-3.8486471,-1.84566307,-2.7798103000000003,-1.52202476,1.3864390599999998,-1.2814871,-1.8075239,-2.2750503,0.049670290000000006,-0.44881806999999996,-0.57958354,-1.45353684,0.66619709,3.5827278,-1.6635902,2.0442768,1.8961023,-0.20115783999999998,0.43849644,-1.5044474399999999,0.0896347862,0.7747299500000001,1.19125633,1.8097976,-0.423607446,2.4410451,1.8419232,4.6843293,3.5107267,1.8276808,-0.04512148000000002,-0.39460815000000005,7.7301117999999995,0.47403635,2.2010942499999997,-6.232126900000001
CHOLESTEROL_HOMEOSTASIS,-21.1547450694,-23.9087472644,-55.947321699,17.2866013783,10.173603613,-14.416520339,-9.084096491999999,-58.482790700500004,-4.3589174785,24.183930097,46.425332939,1.3558989188,-1.4800385659999995,-34.610348471,43.2403180207,10.9010353397,-15.901073404699998,-32.110042218000004,15.990150650999999,16.722801347,-49.1038182558,-46.040262304,-40.5063593784,-63.3756874057,-0.09056993900000054,-75.4019496565,9.114273788,-19.8762782194,-6.479781472900001,39.396054395200004,20.135553290999997,-9.085362230000001,9.633215236,-36.035342696,-25.053407146999998,-1.3028539189999997,-20.44840492,-56.2689056717,80.274386707,6.061270554999998,0.9334701343999994,27.669929188999998,-2.380653141,21.188100975900003,12.623637159000001,4.195306199000001,14.070815566300002,46.920275277,-59.267617286299995,15.258767074999998,14.504376946799999,51.874942483,0.4356766439999973,53.420878432,4.562865227999999,29.648548259200002,-64.05975998139999,28.407835654,9.438361942999999,-30.108672624,17.141305075,-25.9953779032,40.943946915,41.763328836
COAGULATION,-14.414255872699993,-120.625856205287,-118.1994657195,81.03184940099999,-100.0983371109,19.91007184,22.5222985777,-67.105448658,9.245870525099999,91.01402524,14.2772297,49.69730609818001,18.6423683112,-64.01451000200001,-5.3639590276,-65.911078222,-104.75292587000001,149.4315651384,10.775919113839999,90.18297182680001,-39.0275872841,-14.952416829399999,-4.261715177099999,-23.323961206,52.89550349239,29.6127343315,-49.7476206089,-83.4674591029,13.52718807,67.86691826200001,-75.51948260400002,-128.81200861250002,78.08451159690001,-13.010792217199999,3.6703062679000045,47.10936602299999,36.760214463699995,28.72341939629999,23.3690105441,13.448842033499998,41.099882096,-27.687662678890003,4.746297372,54.65027205249999,22.9086228143,-52.8917053595,-78.5036311,43.3583100429,-22.58268118768,-57.378816031300005,-87.36752632900001,177.83503621349996,28.994108407,156.82802659170002,14.862197608399999,134.54366706960002,10.415835146200006,28.6126146355,43.9861831782,20.452079725699996,121.895118328,-45.8474199348,133.3149795552,-117.99574232840001
COMPLEMENT,-81.5862400337,-151.910778022,-85.7733308455,58.94275690960001,-99.40144367799999,-11.102422375700002,77.24048384919999,-50.44136960100002,48.6973743718,141.39727642699998,-18.467500748,63.321237290179994,-15.016573281605998,-61.133709417800006,5.432815091100007,-72.4307223432,-102.9981597593,130.443675416,15.105888253340002,137.9894859837,-104.0448432969,-19.215297692000004,-39.7315522545,-7.7199657220999995,26.73028347579,-0.7603058184699982,-43.494586839899995,-84.47236012780002,-11.546685395,-32.3958842709,-63.94950197439999,-103.7707080021,106.1156421698,-31.224201624099997,23.416953822000007,37.013492881000005,30.318995989,15.995214446999997,18.936851297,27.759147907500004,127.491383524,27.276091735399994,0.5264529657000061,111.191423532,29.9973562172,-57.20575835389999,-109.1470964124,-12.394607835099997,-5.068603303800003,-40.5941044523,-12.038274613999999,174.9338059205,6.777078218,160.3367312487,5.034659229599997,147.28815039958002,71.58614997059999,14.657184882599998,50.1959279049,44.3924618875,151.60386215760002,-23.877806673900007,95.67141509359999,-55.539825860899995
DNA_REPAIR,7.365175870700002,58.1314440545,65.643057736,-231.04662586380002,107.04789919520002,150.98135735435,-167.687500126,155.6648966678,26.3079213615,-26.143588396199995,91.77434318000002,-123.93917866700002,-47.5554888323,40.651230607,-45.348997711,188.373123813,54.4683447216,73.519365558,-5.534333161270004,-183.219884578,-122.823267684,-22.269103012,-161.31947168000005,34.1221057649,64.37160041180002,-157.39574833768,61.831392986,149.2691910905,43.3433262005,65.3570857727,186.9467380087,214.10169689468998,-15.14604295,-58.536885573,-22.600084257499994,82.0857723443,-86.9849860045,-22.645993500799996,184.7650714115,-46.85409844641,-132.92093044348002,-30.570250695812007,63.971582989,-129.4771912246,-13.528155649999999,-17.859774683999998,-17.4797755165,63.603890611000004,39.3960048598,102.66563382959998,-18.999652328,-98.19456078850001,-29.853644936,-146.984464125,-68.21935594263,-62.89083251800001,8.8503549574,0.5024392829999986,-41.7258897564,154.287540975,-63.2740875855,-26.693351990299995,-106.8133629046,-66.5078095002
E2F_TARGETS,113.706851346,-31.494788381999996,72.6620693022,-218.26471980320002,216.03723067110002,296.8455269492,-73.193860177,192.34405049219998,57.4707690016,123.6851620015,-94.8330354695,-127.993087371,-217.4167900372,-6.495195454370002,-50.3149360564,80.473517524,61.173026933130004,49.504813343,-230.30502111459998,-195.776926845,-162.294979319,-86.874250416,-74.09987333000001,137.83155695073998,-6.876419996000002,-178.07001607400002,32.083247579,118.1972490154,95.9841193493,-141.949153397,224.446968287,193.84262582899999,43.798624696299996,-27.6613231877,4.071065215099998,226.793435337,-116.62029503,59.54229540299999,108.45236203799999,-123.79679265,-94.571660917,-209.898226448412,188.932114654,-159.38657752799998,-122.995452611,-39.8882763215,7.9402013085000025,10.233950078999998,194.425143896,36.702790703,14.8198061889,-119.33193237399999,28.021932037200003,-255.7494501318,-226.4975565532,-223.768387806,-7.416552748100003,-0.5849492663999993,-72.411607307,148.38704114479998,-90.53064839040002,130.6770781806,-43.980276790800005,106.58614027280001
ELAFIBRANOR,-0.55448669,-6.7800610599999995,-4.0087915480000005,-2.06598074,4.348031150000001,-0.8848190000000002,5.385473000000001,3.44883761,-3.1460198000000004,4.3289162,-1.79991882665,-0.70124907,1.7881829100000002,-2.49054538,2.8482017,3.059768968,-1.11105657,-6.1677794,-0.12521507999999992,-2.39339807,-6.481748400000001,-1.65606563,-5.4878111,-4.04088815,2.5636973000000003,-7.538505860000001,-2.52933208,-3.37983936,-1.4467236464,-0.5393245600000001,-1.82934896,0.9027293999999999,-0.24348581000000002,-1.18222945,2.20326806,1.8410142640000005,-0.38477557000000007,0.25819290000000006,5.0826475,5.0038420200000004,-2.78248862,0.485896206,-4.0454320500000005,2.13897545,1.0495112899999999,3.0522514000000003,-0.76685102,0.6835137200000001,0.3941920700000001,-1.14195767,1.9713044700000002,3.70649665,-3.1941227599999995,1.11831959,1.8787844799999998,4.83567368,-6.7411481,3.2453928700000003,-0.7387274399999999,-1.78419425,2.04964636,-1.680840346,2.4063242323,2.61247582
EMRICASAN,-32.9543143,3.565416291,-2.9295517799999997,-12.598868800000002,-11.89661353,-12.879987790000001,3.87391175,3.349018752,-4.9579854,2.444439692,-8.98903056,0.2913350200000001,5.882352633999999,2.563186496,-13.969029450000003,5.537681731,-7.73284046,0.5195859200000004,4.47351906854,6.8701484399999995,-15.525537439999999,3.04309686,-0.09235336000000002,-8.10873556,-4.641363334,3.657318075,-0.3406272439999998,0.4335446740000001,13.36325773,-3.609469208,10.1567942,11.988214870000002,10.6289953,4.222206299999999,14.684549019999999,2.842148705,-0.26677885000000007,-6.42343881,-10.98179676,-3.659736114,8.63719599,-0.9896718014000001,-10.2853247,-9.60052351,9.91056256,-5.10321601,-4.6169379699999995,9.60751151,10.610407239999999,1.0938518604000003,-8.641472115,10.705131363999998,-0.4343993740000005,3.4965402780000003,3.7752774599999994,5.88589551,0.793093605,0.9519075139999998,-11.1306064,2.25861365,-0.539734826,-0.02927267199999989,-1.0800490070000004,3.6184573749999998
EPITHELIAL_MESENCHYMAL_TRANSITION,-52.9304804362,-175.8396212887,-124.21758923770001,107.8281546356,-202.162374193,5.657776138999998,64.5661136894,-96.1449140049,29.027711431300002,109.379454844,-7.4113575778000005,29.6458781903,34.168721332100006,-74.0932254427,-13.470803162,-2.280744352600001,-109.46208767499999,78.7350021812,0.40215274770000153,120.63633221844998,-92.17098429970001,23.624283266999996,1.2542417539999988,52.312730473,45.443623368900006,128.42114283429999,96.74572548399999,-43.39728327500001,57.177159863499995,154.14527309919998,32.542651086999996,-118.73601478,150.9333728406,0.7975563977999998,51.7591909776,137.6637824734,-9.427409161799996,42.810886491000005,8.8032022758,-72.8924961628,38.8938331275,-13.715571871200005,56.293746967800004,39.933494224,38.847615166,-86.442134074,-106.2754541155,21.596787236600004,1.6462388586600012,-32.65691624362999,-146.13743425797,259.36973957208,40.7593029133,209.790341689,70.8335984103,131.5932077366,-13.892458687599998,33.314350102000006,85.57288238942999,10.519675729099998,149.7546368496,-21.8968588097,174.35094788517,-101.5017324824
ESTROGEN_RESPONSE_EARLY,-71.12220292449999,-29.969448582,-63.733378463,15.675174973800008,30.550103249000003,-2.8083650080000027,30.6428734023,-1.9448097205999986,21.969738210850004,34.00072107015,31.773298104000006,16.2083456362,-25.422999906900003,-15.922161519500001,46.464924884,44.69927829979999,-34.6790039564,-59.406508486,6.8592113696000006,53.1620774242,-71.1463888425,-39.9615812605,-53.44230052320001,-37.7173406397,20.571933541,-39.3511386876,40.594373396600005,-17.042612650200006,-3.0746153025,26.560382771100002,22.099990188999996,-37.64440076818,-6.997956580260002,-47.505305967599995,-11.2324617975,50.3479472489,-18.60038885878,-21.1613479675,48.011584544524,2.529287678919997,8.744713667900001,81.1316764165,31.6629960892,62.95862964199999,63.068735335184996,-13.9802831401,-23.38353855397,13.127004276400001,-27.007807979100004,22.7859411947,17.3716945102,74.6820734255,16.1503860093,98.89843039990001,-0.6766496079260023,65.774847432,-12.677304079000002,43.945816232430005,17.79085113,51.002315541499996,59.492493027,-30.2694235664,27.239110138,42.5614102304
ESTROGEN_RESPONSE_LATE,-81.93612465730001,-24.1655369874,-34.1919728038,22.3049167609,23.981664644400002,0.12145694924999795,32.0352769128,-16.662107415300003,33.60992378685,63.489160896849995,36.0782774413,30.5243624265,-52.83214285788,-21.5896866959,47.4800601525,16.2472425047,-27.941552022099998,-8.100765201999998,-10.468836928999995,32.315444782,-81.58669946147,-51.250759780500005,-53.952508053399995,-18.389275972500002,1.0468920970999998,-58.48745448400001,56.2099041451,-16.970617264,19.7402122612,-16.018378065,35.80511466200001,-33.97023730778,16.31534564859,-50.579482325899995,-10.986525053000001,55.57724623589999,-23.170463938600005,-8.8994434932,56.541235935,-8.861899788450003,22.105376506099997,60.577842562799994,43.9800218803,63.8352325514,31.752656677999994,-26.7953462062,-5.4722030110699995,23.419341968,-15.909372527299997,9.166410848560004,26.639519286499997,82.66071888729999,34.0123207907,91.07007272389998,-10.213414450126002,49.0056386852,-7.824843158,48.062036150400004,13.144167993699998,29.5672389288,53.983295642,0.9495487745999966,35.5807641295,30.8281060833
FATTY_ACID_METABOLISM,-82.941775457,-90.37467628140001,-79.59986331225001,-0.8016826118999972,4.837880449999999,-59.40107806300001,-53.089706840000005,-102.537178817,-113.8768396124,102.1825906924,-8.87070012665,13.045411277790002,5.673569528000002,-65.80136787640001,100.93604969699999,39.8402278937,-6.522946455870001,20.31197186337,30.6732763584,-25.840768314,-83.270218183,-41.69485720059999,-126.01900439830001,-150.64350293799998,-9.271938222000003,-180.73174916800002,64.1498842368,-3.2224278779999995,-4.63406258066,-11.172560631300001,22.342921721699998,14.5845379886,-57.44283165499999,-82.923139571,-71.70275412980001,-50.373238908299996,-18.739299350299998,-181.0320909235,277.73527517699995,-54.93813740799999,-34.08712204300001,99.47097786430001,-5.3585926293,52.287711011,0.29166026719999927,5.93257266577,74.0485120582,213.6122118565,-97.83255266309999,-17.422547469599998,57.221736598999996,103.2765972842,3.1156974409,87.03836188377,96.741608251,12.586724045300002,-104.97447384840001,91.14261853550002,18.21467379952,-56.645526630999996,5.3937228603000005,50.74508570430001,71.8682000384,103.7080019
G2M_CHECKPOINT,108.71573252180002,-61.34949994216,77.28489526460001,-151.78919503639997,202.32449179300005,294.67218874080004,14.752737051,212.723593252,83.105125853,144.0592721274,-98.34916657647,-120.31511118249999,-247.2486579972,4.172250328099999,-28.6799852517,47.35455882,17.641059248399998,6.942740544000003,-215.23894870959998,-177.82084563613,-166.08818880799998,-62.926265029999996,-57.427998253000005,146.01111991514,-18.953889440700003,-133.564669984,39.9885702105,93.94545363179999,62.53628398200001,-129.1198090943,212.98459627200003,170.32104497999998,76.7261658293,10.7573601962,31.293117638500007,239.79841484850002,-94.6395281337,107.61453417999999,101.53819567600002,-102.00862853199999,-62.367021497999986,-222.0573632246,158.3456113491,-93.03464244399999,-147.567392236,-38.764526581,-15.035607168000002,-76.37519097,183.30526215370003,54.32690931249999,28.797433727699996,-85.97050818,21.677098750499994,-218.77573920999998,-172.086950481,-167.389622019,-0.29318782039999647,21.5568575876,-35.611920929,76.0309554335,-30.4774310167,106.28097937899999,-63.476004686,133.23538942919998
GLYCOLYSIS,-67.66028705197,-83.39078475759,11.492208629599999,50.918647385,-39.401745031000004,25.954671457000003,29.345509311300003,-84.75167685,-14.425956570200004,62.3459276776,29.777261854000002,30.748471189900002,-19.909277714105997,-36.3746101655,78.27102796950001,0.5362062325999992,-35.720526111199995,61.310829219,-73.7174489735,94.45132402235001,-133.0944520298,-4.092241997000002,-119.83276567959999,-36.613750578499996,34.2088920914,-17.7625298448,103.719110909,32.2651425526,18.581638697299997,38.19519602999999,40.884523029,-84.31340097969999,37.19961916,-39.9833468307,-75.573555381,23.026101125060002,-6.8073011024,-101.81859315500002,143.235155582,-19.809649545710002,-65.9958002356,64.1223934015,101.20270437890001,19.449437444700003,5.6488967462,-131.190410433,4.22528714225,188.4358225578,-15.030785539299998,-95.47205219649999,1.206865570799999,120.9536293182,123.64376553379999,126.9236904852,11.785480968700002,3.098512355799997,-86.681946913,123.6780195986,81.32313317178,54.214652518099996,32.2815633767,43.9067283578,136.96081779600001,-4.258030086
GR-MD-02,-0.2358579,-0.14007042,0.1625068,0.4692026,0.026199756,-0.22211333,0.15795848,0.3224461,0.6152539,0.19170488,0.19670174,0.18282038,-0.34651783,-0.0471255,0.38507086,0.25148904,-0.21583134,-0.19087166,-0.25174907,0.28083912,-0.12675592,0.11049667,-0.37555048,0.2845986,-0.41016245,0.22266065,0.2014999,-0.049144946,-0.26433787,0.092187785,-0.29444623,-0.6508385999999999,-0.060035773,-0.24695374,-0.03718578,0.17897685,-0.09693195,0.4842127000000001,0.29556823,0.1731064,0.104551196,-0.29079429999999995,-0.2557901,0.26425132,-0.025366984,-0.10354192,-0.21728554,0.0493091,0.24173655,0.29452658,-0.60867816,0.36602873,0.016235946,0.057449225,0.26311794,0.34057814,-0.5269463000000001,-0.32275364,-0.023108117,0.19741570000000006,0.15664211,-0.55208033,0.046642806,-0.017807563999999998
HEDGEHOG_SIGNALING,-10.117101445000001,-19.40202554,-16.872286220000007,19.58003342,-15.989492315,-3.825327862000001,5.4129940126000005,29.310323359999998,23.64791261,21.918732484000003,1.4181179330000004,1.3655955389999983,-8.022294600299999,10.555337689999998,12.992617257000001,0.7963154580000004,-24.581716898,-23.91911824,-22.247611704,32.694698710000004,-14.463560808,3.604362296,-3.6177207364000004,6.513300929,0.10365460500000062,-0.8293031830000006,6.285128713,-16.630136664000002,9.223394352,1.343246763000001,23.81859969,-9.136763986700002,23.33580822,2.9988233799999997,23.46566056727,27.920951950000003,-0.7316151223000004,22.924819598,1.7096211540000001,-0.5302230443599988,-0.7687296277000002,-21.136109049999998,12.698814936,26.179626562,4.056139890000002,-21.418376117999998,-16.832700083999995,-14.146353781,4.374957142,-3.1450685660000004,-17.79017739,38.353698896,10.468061279000002,18.713849525,3.7880300706499996,12.208609064,-7.6205939022999996,12.086976904,11.827921762000003,-3.9024397310000003,8.472966614,-27.873144567999997,-4.7186932665,24.87201104
HEME_METABOLISM,-38.710998083069995,-0.2660868275000019,-45.376768324,16.877044579600003,-7.595285686000004,27.21816007676,-31.9879300248,11.192757480800001,15.480484513599999,44.749767614044,9.740469158,-28.7904417901,-42.65750814970001,-38.8111088693,41.590354705500005,10.907244457000003,-25.3517987896,-8.120871794400003,29.8343615557,21.331275566905,-4.190158738399999,9.699197311699997,-55.1361336544,-54.5394093014,-25.501455686600004,-67.38742564694999,63.6543867235,18.5068892634,19.9739494922,36.98765891385001,44.354258512,-14.0216111702,10.139673979500001,-47.55045386250001,-31.4707696312,14.197274996,-24.528274973099997,-41.926339263,125.87588412500001,-47.000484103000005,-19.751275461600002,57.397130763199996,2.0938627836999997,55.218150004499996,33.147695589,-1.4622831525000004,17.0288669086,66.0912540098,-31.704097382000004,7.799771818700003,25.3790654855,53.7085308705,85.9005727853,60.089492496999995,38.515705213,-15.9632697272,-18.001753815300003,50.9073485719,-46.330226389399996,15.7703366203,45.221993709,38.28971564,23.905439977000004,26.340170945300006
HYPOXIA,-94.24296139647001,-89.382120395,2.7476976531059987,44.2764238342,-35.755646224100005,-2.6709466484999997,45.636797693999995,-21.082058658999994,1.3716346083999993,92.499391714,41.396099039599996,37.59425753400001,-29.277153502106,-34.0365097668,44.18330322450001,11.870880383200003,-72.4651390066,60.280421651,-45.720694057799996,130.6670103573,-118.33617468979998,7.007498667000004,-121.66131595939999,-47.947723001,49.90685742800001,-26.644753628000004,45.835988224000005,-20.207100361000002,-4.614662630300001,13.250874997299999,16.194169715999998,-82.732691382,42.5759210329,-24.124433325699997,12.538102880600002,28.2957579872,22.006501602100002,-59.430261445999996,87.38621586509998,35.942011951110004,-17.2135912539,49.68193061255,52.134325928,65.3794392424,16.917391519200002,-90.867310215,-47.76208339208,118.95687208180001,-16.522195772,-58.37546173389999,-17.3588954569,121.085724426,52.3159880256,139.3777461572,23.55780354299999,58.52348245820001,-82.80506070199999,83.0331252546,62.12189309900001,27.2323091161,65.6665522694,-6.117985661299999,105.3845753505,-31.960412794700005
IL2_STAT5_SIGNALING,-120.5469816928,-74.5456792057,-20.482812130600003,10.4989517045,-43.6036836645,-21.681516186089997,42.502457844800006,36.7541023853,56.534853520599995,95.93259677309999,-7.455099695600001,20.834029863540003,-31.02591163448,-28.3488514621,40.567966142900005,16.36513982217,-49.360412637500005,-12.982437296999999,17.9527610995,73.82077984699998,-79.89845319592999,7.178686588949997,-54.2667645962,-13.126465486000004,-1.8149322799999985,-32.305242812500005,59.0075003891,-39.601310084199994,20.781917563300002,-26.789559530300007,53.14641571290001,-56.224895301000004,54.746989923200005,-46.129771226,4.374562660769996,77.51524995689999,-12.8741824397,11.797620739000003,28.269100987900003,6.0522026873999994,68.9442931655,55.092472925550005,36.155577617700004,93.7871825594,32.06751597686,-41.83242521012001,-40.6984702099,0.3241537085000026,2.321443665400002,-12.9829718465,36.741870414800005,122.55550245929999,26.9117371504,89.99997657400002,51.09201450825,28.940962046700005,34.4606004989,26.3457590975,15.884512449400003,13.6060671975,92.0276840868,17.82428563554,47.0718148121,3.6588131486
IL6_JAK_STAT3_SIGNALING,-142.21621051,-50.012227360000004,18.174213682999998,-17.676899351999996,-35.384985306699996,-37.03471691842,65.22274351699998,28.7961476234,64.743196971,138.05592393099997,-0.6462157960000005,56.26145936344,-29.078763039500004,-14.328243480999998,62.1993734666,0.766917930000002,-32.1666894858,1.7851473923000012,46.353620584,48.046929472,-38.075188184599995,11.9601903738,-68.9181865724,17.2690873875,-52.7253982437,-16.7181307456,21.625595318600006,-61.5773811113,1.0072807416000003,-78.663709859,-10.220255311999999,-54.25390982009999,56.42164511306001,-39.8617830374,48.6618640313,33.8903508123,2.474838824239999,12.529448974300006,7.6416617662,41.907764764899994,90.580171236,10.503174635299997,-30.133749343,125.360179323,-4.345771163999999,-3.2455674136000003,-37.515072718199995,-9.430335397999999,-14.3500943814,10.942260526000004,-8.0673586564,104.51228745,-44.4719604327,97.44637593200001,84.64368164700002,63.14214720600001,77.362393524,14.0231214327,27.4971105235,19.038662203399998,147.98773410399997,25.964571586,14.258577578500002,-19.637929017
INFLAMMATORY_RESPONSE,-182.128228544,-64.502781742,-37.68620671913,39.76934500436,-38.215803921,-68.08180347001999,110.515612073,-5.1348321665600025,67.53609032009999,96.7811038664,0.7026221310000018,71.5380478166,0.9324779842699975,-55.39789827880001,32.460251230400004,9.207653465100002,-80.0280959419,38.06351511329999,135.6485749936,90.71172880099999,-47.392906164130004,47.8568545328,-36.908078251,-17.902873126999996,24.1084348223,3.306792462440006,-13.5692752175,-133.9531179605,-60.3499114812,-62.36260159,-10.757952096000004,-81.4743293388,63.878169265000004,-24.442596740999996,10.309493896499998,7.527053304500002,-17.380984635,-3.1786221990000008,-8.541226238800002,18.694105584900008,155.54601652219998,114.4536570554,-25.4507021525,191.3827376154,38.026482352,-2.589506482299998,-38.8259906222,-47.7443265812,-42.21025345964,-0.6546388644000007,37.428737600199995,151.10002574,-13.9200280582,174.9568049401,96.0015190817,121.14076689170003,163.30650437499997,14.5272546641,45.2760569539,-15.259570791999995,235.9793008816,32.7250627133,59.1334443555,-96.3167982397
INTERFERON_ALPHA_RESPONSE,-40.11566907199999,-21.225131715,59.556644219,-0.8665892354999999,-58.713778399999995,9.132703689000001,17.127956718399997,32.85363360945,103.25731365400001,81.872508452,-26.773058834316,50.090175912999996,-52.9855318495,3.496524301750001,-0.5165756082000004,25.025163540160005,26.558028184199998,-33.907169002699995,89.55274211500003,-9.660131374269996,-101.4639831578,-0.8388816540000017,-26.786557211,-42.281307367,-65.942666485,-58.374659277,51.187119,25.87368821,-29.738981690499998,2.492800633000003,41.2278562364,9.8137588465,35.25440605646,-60.16718573599999,25.8869604275,-14.8414945426,-47.996552063,-51.53767291199999,9.6773313995,54.0067058434,117.8294754425,33.97541057,34.571227758,76.12638468939998,-65.80528824100001,14.381471837999998,-1.2524627480000012,2.6894842170999995,-24.60840528964,-23.2012164111,36.87049538259999,5.2290536549999995,6.371800534,2.0215012789999998,65.07081050330001,-45.92734468999999,103.76930441899998,3.6409271908000003,-39.437888048,-3.1342444514000007,78.29155848490001,70.377726997,29.029944167,5.726186771999999
INTERFERON_GAMMA_RESPONSE,-161.0004196284,-74.001079659,107.888228478,-19.777887492740003,-96.03184176049999,-18.410710275,75.50172983339999,62.10513409944001,180.499007539,214.686791707,-53.09523244441599,117.54849654489999,-91.0538355287,-6.037646163249999,30.659102019100004,15.5450478063173,15.232314192999997,-43.30141281520001,131.6067346895,24.859054410730007,-213.5259750023,-4.072120257200002,-78.826283817,-43.7507942378,-126.58795475970001,-93.988800306,69.4646135535,9.682477475300002,-37.7731377665,-75.60284730400001,55.2991730097,-4.857732458899998,107.11799569346,-111.4968767764,69.09438355947,-0.11133147659999754,-65.5208793503,-63.07202130649999,12.2507942506,116.68455703849999,238.30860641880003,56.4999176133,59.66076034599999,184.654090629,-91.8071750326,0.4422125963999992,-39.937904363499996,-11.690208896,-24.548746895940003,-35.6139586666,82.23994069929999,84.69322030999999,-9.289971884,46.2981639505,118.86409457689999,-24.925864361,209.10030895900002,16.858764030099998,-49.3408244548,8.3105042663,184.559577699,109.06535072929998,46.97038969249999,13.013303882499999
KRAS_SIGNALING_DN,-81.0588160008,50.7143143888,-37.7708227101,57.721396410240004,6.106096197600001,-4.111393993832998,34.7120611627,-49.617043298,69.0449238413,48.0878485943,53.0202670055,33.38229497532,-16.743457855339997,-45.2876659289,50.731179395750004,8.36698207417,-42.0343287843,-45.02054249,64.718097587,83.475606903,-19.6353623847,11.7986099417,-27.273315474999997,-29.877489669200003,-21.5806888597,-26.854207589300003,25.653232991000003,-27.374405596000003,13.4342808984,42.552053806400004,22.556025167999998,-49.2172035054,19.1839566958,-54.05793053515001,-45.6708666791,33.928542072999996,-26.026746362999997,7.682051426350004,19.243122718500004,-31.338584220699996,-6.305732133500005,88.05984162549001,32.0766633095,72.59554856070001,96.2526227857,-8.4022740998,13.0999325517,32.3942143212,-49.54475920109999,15.985138764350001,12.871897,95.5962326311,101.091923091,123.7060978475,-5.748584851099999,62.9940277753,-4.074070654370001,69.10136883843,-8.975748314999999,-3.9829608384999986,91.05072190499999,-0.17760365690000102,37.8889299847,-8.71263394
KRAS_SIGNALING_UP,-89.38027607549999,-52.87666906550001,-54.1986068845,29.39007596,-37.4056068115,-13.097134121999996,47.9066942738,-9.59317731613,40.300037066,99.345014851,14.700646734099998,26.2268755266,-14.924300209000004,-32.887972574100004,33.339626579340006,-1.3122921632000004,-72.18918698632001,28.2671967451,18.715085627100002,81.0029829792,-61.48452175580002,11.629752984399998,-40.562308432600005,-6.631390824000001,7.3268630464,2.009832205170005,19.021802405299997,-65.1386836543,11.367097462,-23.129607944999997,8.296684410200005,-49.79908742876,52.161592842699996,-39.55280833569999,27.783411344300003,44.91977066340001,8.29695260448,-8.957104067000003,19.0472589365,-4.744036175599999,60.13000126029999,39.085787269,28.6714121018,101.01059391170001,29.887864744359998,-25.87618157992,-52.6268166032,-2.8032678739000008,-20.077698614,-17.251913767599998,16.837038711599998,125.2569976345,16.8028777346,117.8569746945,19.52076837394,74.06139248870001,42.8972324327,32.6088045117,37.084635407099995,8.805835184000006,105.632915798,4.482718161099996,48.516315186,4.323481863000004
LIRAGLUTIDE,-0.97839427,2.7397485,-0.2923406,-0.3142118,1.5776019,-2.0473254,0.33717024,-1.0492417,0.62801236,-1.8003131,1.1992188,0.08343383,1.7689713,-0.91024655,-0.89605767,1.3143996999999998,0.35670105,0.19737218,2.026895,1.9083087,0.63598806,1.3260316,0.56274515,-0.76771516,1.8039871,1.2871475,-0.50798696,-1.6996981,-0.1410994,0.8449605,0.6301624,-1.1172138,-1.4911671999999998,-1.3519838,-0.80330694,-0.7449996999999999,1.0288403,-1.0380805,0.12271572,-0.8223125,-0.53239405,4.0341845,0.054832883,1.9346572,1.5556107,1.4196913,-0.16760439,-1.0664448,-0.4279733,1.2519743,1.3560427,-1.3699344,0.5592524,0.22058828,0.5445310999999999,-0.6984145,1.6116711,-0.12903877,0.27307805,-0.0047267126,0.5929483,-0.102055624,-0.19029526,-0.3206325
ME 1,-159.27275222539998,-29.978439895047003,-117.9291634769,-93.0707208911,111.87099321037002,204.3721250275,-90.918954872835,176.93669419600002,104.4205751021,86.284866779628,61.776577605730004,-169.66841171463003,-79.2208432795,5.774656650050003,-54.492375475399996,222.93314172357003,-70.15815040756999,-57.719189822100006,27.057996838399987,24.788026383835998,-180.83548768146,-54.49760464886,-164.230449389,-188.6399197091,50.22242366709999,-260.55984695200004,121.02035435669998,151.92123597045,77.04974578629,109.10375662337401,224.9662711779,224.13167937759997,58.7652242041,-50.54187303854,-45.68833573779999,145.3001324146,-164.4798626783,-14.431998884700002,276.0819855984,-86.23932940578001,-64.84854238224,142.74766814381002,81.59902005485,-12.270061358633988,142.2470228876,-45.18468960634,-31.398599428449003,132.88049604732004,39.189674762370004,126.87037460748,49.426892824199996,-15.633793922886003,148.60506926140002,-23.44260921394,-97.14009245486,-17.840194517041,-71.92825705019999,164.5375456959,-168.14083073404,241.9668863513,35.426719144900005,-13.532141571252996,-27.25236822816,147.8531174332
ME 10,-63.31555333434,-84.880265343,-60.7538851425,33.213879829099994,-0.9994937798000043,-21.8921054763,11.272808215929997,6.705985883700004,37.3832941081,77.555418231,33.658588737100004,5.7543804632,-63.157216926546,21.978753392600005,-51.42280380929999,-20.822543049400004,-30.6992605176,99.76645507050002,-59.20231569768,61.378166857100005,-68.1882323236,-117.68611180299999,10.140421846600002,-80.65963799661,35.15541760721,46.85751817430001,60.514794881,-29.009360248899995,26.025260089999996,-76.7991696084,35.0314840597,-60.1398982615,2.2356254215,24.120380943799997,47.97935283300001,39.8751154495,18.6668605876,18.225950992199998,-17.8702006949,-38.69388266269999,93.7246981933,108.09170574619999,40.659642626600004,111.9439491503,13.202837905000003,-46.43860629865999,-52.2980572516,-26.4137755969,-9.584981464,-36.22586951859999,91.09103886950001,11.513722095799999,20.295816623900002,62.69139569367999,-50.828771029600006,47.62381428330001,81.0381540784,23.370674105899997,32.58836491987,94.424510863,30.0892118617,21.547756237544,16.442523683700003,92.47027004590001
ME 11,-47.375049011,-58.4343900106,-29.739866976180004,-0.21697495950000012,9.544575400000003,59.04187478910001,-52.539467723,-73.41388359140001,-10.821683940500002,-36.921567066856,-63.4782514116,16.725805415800004,32.88161766513,-8.9831217355,-35.9263325444,23.670218841,29.85566039522,22.534439757,23.5612068525,-3.197802469400003,-14.026809525100001,12.744481363300006,-14.306426535500002,-168.6572444863,21.4129932311,-136.29221791010002,46.623633846000004,74.69393481499999,6.088955549199999,6.027965197400003,15.972174552600002,138.92513773174,0.47678660520000227,23.5528363369,-123.481927337866,-11.761524104399998,-59.350473141799995,-62.055357671500005,146.0767188749,-116.82963439656999,-13.0802016183,99.4888413592,-35.566965295500005,-46.432852821,70.54893664069999,-28.270911540916998,20.53006786668,208.0249250571,20.105359071040002,9.694565482400002,-56.192321066999995,0.4301905039999969,120.5395788564,6.578558134400001,35.98194659959999,28.8793417922,-15.438849280799996,120.10081345649999,-40.614458494626,101.8145263368,30.532993332900006,42.1229977298,55.683284265,24.891411765400004
ME 12,-35.9255571395,-25.8407606464,-27.9337192797,-7.3792656074600025,27.445670336999996,45.10677116190001,0.33410000199999956,53.9674463404,28.688484534399997,30.660887901000002,2.2443378308999984,-36.2622959085,-32.7854003217,4.793385290300002,-4.530640057650001,39.961861209599995,-23.92727871474,-10.4058082876,-7.503196181399998,20.445367914004997,-80.40073586070001,-27.949799589300003,-35.3712294099,-43.2832810103,43.729341686,-60.4022932022,35.9460323682,33.154991526100005,27.862850598999998,23.1091224684,50.57987535769,47.2221525052,26.369035108,-8.069106269000002,17.650744969,60.506221592399996,-37.8142648305,17.092967294400005,62.618132118300004,-5.399703855870003,-1.9222112269,46.3866390945,47.746935729499995,4.444930637399999,22.8246690303,-14.661449052299997,-0.8625772667999989,-0.08028589940000153,4.316957709339999,30.971754520399998,42.8914109624,1.6440875366000038,32.3701189233,3.780795177500003,-28.460314962600002,16.619922920206,-8.501421624299997,36.205459828,-3.1447847386000016,54.4230610488,20.008385671040003,-0.1305166429999982,-3.64098085925,52.36254963
ME 13,-17.058072112999998,-88.0834373651,-42.8505422126,47.36802189971,-12.92364628239,33.8663545999,-38.2995436654,-9.842631042099999,1.7251505978499981,12.397537289000002,-8.284583164499999,-28.1610632791,-45.34825198794,-44.361115272999996,4.025756820299999,-21.168847656300002,-15.867392745100002,69.25072264709999,-12.757661167879998,53.4811856634,8.386386710500002,-62.76021415260001,-10.732984972250001,-79.2003636595,50.9873723866,7.8966920349000045,55.720644233,-25.607177404440005,-35.0989600355,-25.146703420999998,14.474005154399997,-38.4982081536,-25.966690732799997,9.6380347224,-45.005189190500005,18.275765114000002,20.0580714583,-40.4743908346,36.730021001,-20.48423877391,62.25125587830001,134.360809615,49.722245343,81.3324033545,11.8593153278,-24.510902901999994,-26.373767258500003,19.1416168788,-34.97163222524,-46.325997946200005,67.06455861904999,-2.7821482531999977,22.4140629872,63.609130388400004,-10.014657269399997,22.24146016673,52.3851738385,20.402475269,38.107083764500004,68.376060773,27.323342723499998,16.0340719197,59.23321933,15.890053779999999
ME 14,139.4277012184,-12.439693115,-68.79112147475,-9.334044910559998,-54.4936409485,112.029006587,-36.063183847999994,50.0776707887,-36.77653638834,-91.46409258220001,-125.561037554,-70.119002127,93.7624862305,52.07748698804001,-137.762702007,17.1368835679,-73.9760976976,82.6271637538,121.7241381866,17.018513993,53.0583793477,110.976387222,60.004420804300004,-186.71489859259998,70.4516110826,-10.563078668300005,4.6110600562999995,64.6970715407,-53.30928357620001,164.675365991,92.8932825209,105.904538963,-140.15015547939998,17.449785423100003,-215.5881832142,-74.2005942406,-51.271680917400005,-133.091171153,6.048648201520004,-207.912502773,-90.00302909036998,66.002786356588,-101.60298633699999,-268.34474366999996,178.129283536,-59.5006895679,-41.3284659842,243.85931936,80.12471862269999,-89.909558011,-37.928948443,-95.09135375720001,98.0078514086,-69.5551980775,63.23910763307,37.7884792011,-1.9342972045600018,137.015873337,-133.99259935519999,145.7660027829,2.6730770686999987,-53.706963984,3.2549518137000018,12.271606914
ME 15,-30.003590578959994,-18.636690407439996,-20.1928447643,-1.4678711589999984,0.7515077229999992,19.5888375784,-1.8934909215499993,6.153554444440003,33.2985977834,39.02888114730001,8.799503380000003,-3.156639609340002,-11.704800674999998,-7.653442090099999,8.4625897423,22.033742129200007,-9.9862942418,-11.904089559899997,26.828319653999998,58.687476188999995,-19.169907093099994,-6.519931936370002,-19.791426092000002,-8.326253506200002,9.850158832,-25.6080136193,16.050735223990003,3.420099855500001,-4.0373157745,3.4993529901800033,25.015116332340003,-5.392400654599999,33.2163889522,-14.99667869703,-2.1180521799999994,23.393176905599997,-11.991431819399999,-6.9887841374000015,31.1180108025,0.8272441514000026,13.749009959000007,46.28646200899999,34.23483675749999,43.983213064,20.665236096,-12.671754945000002,-18.919573926669997,-13.607196543199999,-19.24938994624,3.011435709599999,31.012138131999997,29.987282340399997,38.902303280299996,38.58717725439999,2.430445829999999,3.7229988603399984,19.596044121000002,19.6116963224,-11.503720402299999,30.5520616086,40.471713867,11.049382847300002,11.893974229000001,19.487242135599995
ME 16,-26.84031035,-16.849382519,-28.745367053899997,-4.932697844200001,13.605507032999997,17.61930219,0.5642568192740011,15.2415005982,10.196697480399997,39.14245549300001,-4.060291567900001,-23.8131043122,-14.352174532000003,-7.325462226800001,-8.059392590400002,11.6601092354,-11.454245705099998,-28.438126130400004,-10.2560691357,27.3303867666,-25.192725551,2.342186599699999,-29.432828845299998,-29.4774199585,-12.915035755,-37.971784823200004,12.6768344542,18.4562431654,16.3101941454,9.474521758520002,17.75835545153,-2.1537549249999994,15.545044130600001,-11.389710106,-25.44451917407,6.024904729440001,2.0633383214,-14.571985911999999,44.883825820800006,-21.1346202143,-21.786897315000004,-3.3694959666000006,7.759510634499999,1.6431139919999995,28.646864633000003,-18.3880840801,-27.6957537564,25.252463809600002,9.0221865974,-9.238829603100003,11.106775025600001,18.921781996099995,46.968166083999996,7.458047481999997,-11.869349259000002,12.47641756165,-15.257769123,27.890394151,-25.2261251922,34.8926945655,-5.1188258545,5.51029431903,-5.997691247599998,30.502503363
ME 17,-42.231727198,-35.766040956,-13.945944259600001,23.143084893799994,-3.0965209339999995,-26.498807687,18.8840209864,-6.242166172,35.456582644,57.27127026350001,15.569600237200001,49.416283152000005,-9.027645558,9.441396363999997,2.995275050699999,-1.2800502319999993,-12.703165773530001,-8.6456825995,-8.880430783300001,86.7886995992,-23.671176692000003,-20.207445299659998,6.55686587498,12.079301224,-16.558991427300004,4.078139305699996,-1.4319435649999992,6.75151599896,10.372380591,-34.90309447589999,5.9296196014,-28.15461967446,44.15879985,-18.501871378999997,24.128257504,18.442596656,6.018691583170002,13.7228714903,-5.295024689000002,-5.83366620943,59.4293214583,24.158985549,39.723365061399996,75.68292617000002,11.774752426300001,-18.070487748999998,-29.252440567700003,-34.2624891818,-17.41323056624,17.86182916116,29.1298501555,42.22687205450001,19.838888698999998,26.0947958157,3.1727961464,18.5220324224,46.076121918000005,-9.867772375,13.1963366063,41.2201036975,39.206965106800006,7.444503688000001,-8.0562773573,58.799312714
ME 18,-15.316409323000002,7.969789613999998,18.408883583605995,0.9927345687000008,-7.282911188000001,50.785606087999994,8.757064243299995,82.1293983704,15.808492571000002,28.86051584667001,-24.440890989000007,-30.525349379800005,-83.44088438703,8.318543305400002,-25.888725545399996,8.205637829599999,-10.982910140639996,47.36439608699999,-18.667795083100003,-44.3205065028,-27.917551395300002,32.053818738,-14.159214895300002,-66.24403822146,-7.8180223189000015,-27.375906048400005,31.5969028845,-18.772260827999997,13.1338099995,-22.880999274100006,88.0028015757,34.431540897400005,23.942734258499996,4.6440695467,4.719489360999996,17.469914295999985,-8.038455779,-13.126107310400002,28.969400395,-58.624603833349994,19.583493619000002,-15.438842489400004,-29.115243274399997,-15.698328143000003,-45.50770574759999,-28.127233291000003,-6.546713295000001,-1.5233876869999987,27.0038239782,-8.837763422199998,49.602823283700005,-19.4035165549,33.9292801587,-24.692069923400005,10.473314162799994,-24.537810377000003,13.880845813599997,36.846280078999996,-37.2175951525,0.9757216527999978,-4.488735504100004,37.11749750429999,-14.040924949199997,50.771052328459994
ME 19,-22.112285583269998,-47.573756912,-25.867447430000002,9.959870878999999,-18.935194810709998,-5.9638156129999995,-8.6938505796,-26.815710550000002,14.593196337000002,35.949055892,0.6622797786000005,4.728378085999999,-8.6757917135,-9.122868404,7.693014364999999,-11.322377723999999,-9.986655851919998,30.383533207,0.5410765350000004,50.242489721000005,-11.968092363000002,-12.654769766,-2.0358900505999995,10.709028468000003,12.853784945000003,-1.6806268594999993,18.219451110999994,7.7084217279999985,0.9158278210999988,-35.5984648721,13.252087551999999,3.7531338819999993,2.3664579732999997,-12.428213651740002,6.3697465939999995,19.2811774301,11.384195061000003,-8.751553393,19.427799374000003,-22.789381226899998,41.956304104999994,47.115940646000006,37.96199274000001,41.092383410000004,14.975498270000003,-10.287531038000001,-20.880684721999998,3.0883848550000024,-14.4918263838,-1.1569513541000007,34.915703902000004,24.27102996456,2.1465086169999985,37.155452861200004,-4.5700379148,18.427578885499997,35.6371116086,-5.666744832599998,22.136346351,25.928258272000004,18.337475331999997,16.933406830399996,13.588748567000001,23.090835773
ME 2,-8.489456144340002,-51.023428235900006,-40.214014712099996,-33.5736233803753,109.4061681676,340.7755325131,-94.0082107469,134.22136247740002,93.33104201354999,45.94130645439999,24.7727934439,-93.77949434016,-159.68445683660002,12.217827360759998,-79.44966434202999,141.0782533314,-35.1306047298,74.55581449080002,-22.731677962470002,-68.31565392615,-202.9326309326,-57.7617914017,-123.21125870740002,-152.6449497836,76.1650665432,-181.66714451123,102.13178195031999,207.15112049059002,53.21223738190001,155.0102811093,167.3800879619,291.72490238058003,52.19853710135,-3.803461352030002,-13.767888477399998,116.72791117930001,-123.61855985075002,-28.648179676000005,268.94176623784,-121.76122858423999,18.303216091200003,144.506006916,112.18193514403,-26.1280169949,19.532458689699997,-72.504462725,-55.966048225639994,98.24762419009998,44.68587252667,184.3028395187755,51.8863785062,-101.15193988582999,151.40831860549997,-36.8917891441,-148.4734756116,25.013894695419992,-6.0177414213999985,191.05059129309998,-93.969053102,302.0731024966,51.00503572606,-49.323608210559996,4.3866882080000025,101.22873952880002
ME 20,-12.863972908000001,-83.049962222,-47.759826358,10.184118616500003,-49.286101432,19.449332708599997,11.463092360999998,-56.253752298,-5.662929485399999,51.0963890386,-64.280314142016,-16.355003600200003,-18.016504332,-45.1574612505,-11.631772499,-25.910704614299995,-51.48527245,76.277420872,13.568429648759999,15.421004205,-55.3324576454,-3.2314950600000008,-15.737936883000001,1.1898418640000001,10.387294094,16.007932543,7.6625524444999975,-10.106449622699998,5.671493548800002,-11.3404396386,-14.238464977000001,-26.649126593499997,29.77268876000001,-27.613307059,-32.9119906769,8.336681294246002,28.994887053460005,-40.905075151800006,48.380005360000006,-5.390645016400001,57.27563365300001,38.912770321,47.335504137,23.9847088036,0.9983917711999983,-47.42025871399999,-49.39668278700001,-19.2825063003,-3.3848540341000026,-54.076118889,61.1869847448,68.76378085277001,4.807811662999999,67.242608903,-21.22132168127,51.423303647,63.71582733699999,6.410838728899999,18.059133588999998,27.267600832,31.92707644530001,2.1586884400000015,49.549039992,-22.378066618200002
ME 21,-30.045396885999995,-35.9405476445,-18.3305689666,5.067058718000001,17.922563186,18.458041670400004,5.522038265,26.20064775684,20.6226283503,44.252415948999996,1.3904921639999994,-6.124422095000003,-20.204239781999995,1.304413105999998,-11.22316977628,21.0889195017,-23.0800305396,-4.496923391000003,-18.870428872999998,50.801330052999994,-23.911243577,-10.166731191999999,-9.152745700999999,-4.517543153999999,7.8348447012,-11.629122041,-2.9491019700000005,8.017466971500001,10.064405725,-13.6642949665,4.7751295549999995,-25.0897589531,33.421876275500004,-3.6995171969999996,6.309341396939999,29.814346948,12.379194859,8.805538107,4.964951545600001,0.997154184499998,11.553471934999996,5.9248864313,27.863383463500004,23.118226523999997,18.350629494000003,-20.00869327,-20.267633927399995,-20.08852955215,11.159281666599997,14.794245130999998,7.931231491099998,21.831549032,22.918713429,5.513287870499999,-20.618386293999993,13.165585692999999,-7.750275000300002,-5.6725503697,-7.795597912,50.848720625400006,10.883545259000002,3.7263449900000003,-5.650987582000003,30.7527905693
ME 22,9.447300990000002,14.677785646000002,-8.351229183000001,-32.05287170249999,34.521457313999996,76.64549296868,-20.662912030174002,23.188515809100007,14.0835912181,7.8782538179999975,11.628387327999999,-30.767930611999997,-33.0027832458,-4.29771734367,-19.543937529000004,42.7509503688,5.250982381077001,2.9270815030000006,1.9817609940000012,-22.463919051999994,-23.534357205,4.795538355400001,-24.339195614999994,1.7467720160000009,16.147632826,-18.5446897882,2.6636797130000005,41.432299705800006,6.018126888200001,50.227746399000004,22.880364257999997,71.88071454867,7.545000089,-0.8920130409999997,-4.264651666799998,20.668025328400002,-11.742597390699999,-1.8724776995000012,25.806858297999998,-11.5106073265,-12.021907247000001,-3.6448514362999997,13.632560173399996,-38.248221951,12.998779668999997,-4.758819264000002,-27.666158012,5.779529150999999,9.455245794260001,52.548732911,-5.008425753500003,-37.77206053890001,9.827624097,-24.2247028327,-44.797454646,7.690480733,-10.060518625899997,20.062251397000004,-27.876602760999997,52.7744817895,-12.200349854499999,-20.6075472047,-11.411479831,-3.1261062629999974
ME 23,2.0072411239999983,-37.514632498199994,-4.3669309016,-5.52785868945,5.308912542400001,2.0058311369999986,12.825001234000002,-11.6568339912,31.75129871,23.2306989286,-4.941904873300001,20.378728621500002,-4.199120493999997,7.222529335800002,-9.717701515000002,-19.246540715,20.799779901199997,8.3929449924,-4.050373328000002,33.206947043,-53.26981004700001,-38.1693330075,8.979845614099998,-7.840418636859996,-2.5258653562000006,-3.5528019093,3.0645713319999994,4.446208229,-13.645326207999998,-29.1528063049,-6.589948533000001,-7.463132205999999,17.022833652,-10.043382751,8.277765457,10.313301845500002,-4.642974000000001,-13.297971661,-1.4938336940999999,19.325641823,39.86298236700001,21.993407154999996,37.69876070200001,38.577831703,-16.2819268612,-9.153045155800001,-12.6418849135,-12.447339897,-2.6527924929999993,-18.578922934999998,38.101815764,8.527446561999998,25.294314986000003,2.6750781339999996,-12.576609726239997,2.594900843499999,63.23946727599999,-2.1412196530000007,1.3139371320000006,26.805832686,25.799441831,12.290814645599998,14.537391285799998,22.3609595
ME 24,-15.721535729999996,-40.933786518000005,-20.482542274,21.309590992999997,-30.2969334553,4.9976244127,5.193820125000001,-31.540449872459998,0.8838722069999997,22.817285271000003,-11.992645342000001,0.846754488,-11.119222853999997,-10.841151266300002,5.3790174752999995,-17.01547759,-8.436142436499997,48.984207444000006,2.5414772792999996,31.957761636999997,-20.56660219,-11.006074592,-1.5589341764999998,-9.508514412,23.1264180599,15.453874890929999,10.710872145949999,-9.910230899999998,-3.6048385671,-16.510311891,-8.943362798999999,-19.173578494499996,15.248578202000001,0.4694180289999992,-10.8112537095,25.5911278256,15.338484765,-7.140208721000002,14.41346878595,-4.967964349000001,22.4918872968,26.081170509299994,21.9031851075,13.951109678,4.562744667999999,-26.220614291400004,-22.397963566499996,6.7719709917,-7.215959743999999,-17.228648973000002,31.936147158,29.940224158,0.9303170209999999,29.505203808700003,-1.4622703844999994,37.252039599199996,21.178626461,2.3911839450000016,18.901678720000003,21.112082121999997,9.023341660000003,-6.543346816999999,28.381189586164997,0.49217136900000047
ME 25,18.813252473400006,-0.7839878870000003,-1.9400139927999986,-18.805066694199997,3.3586444691999997,38.248990701000004,-10.373593732299998,29.587821347500004,-11.87077093,-3.0590913180000014,-18.585640249999997,-21.311958314999995,5.762623704000002,17.786149456000004,-34.479847161500004,22.2223255456,-15.89614355,24.215300234,23.634684313300003,-5.357083508,-2.8319116060000002,12.379694719500002,-10.3376494485,-30.8453654912,15.391757782600003,-6.7848591067,4.4740175314999995,27.189195102999996,-11.920209477,33.59715572999999,35.888575559,36.23642382799999,-27.09261508,-6.6290861965,-27.136159504000005,-6.788235358299999,-11.550261178800001,-32.467476083,14.6384528145,-36.877014387600006,-26.7739408807,0.9604224626000006,-18.1548130994,-47.08475656352001,24.735876602999998,-13.294657888,-8.918900338999999,49.68839727899999,10.633490180699999,-2.6107136360000003,-1.8943753210000012,-26.0081110037,3.810637912,-24.445908137,11.919162692999999,5.8945331412,-5.396948233330001,25.8411153434,-35.42270136900001,39.738930445360005,3.6069406309999987,-24.205043415,-18.4598463605,-1.2188270008999997
ME 26,-11.4397534,-61.456055635,-26.043246808,20.133040946999998,-25.305099515999995,11.542882949000001,12.681281508000005,-36.232330804,-10.624789214999998,16.544677583599995,-35.4862724174,-13.5302140135,-27.305399423,-15.536573487000002,-7.3211348374,-25.552698815,-9.876084878999999,66.781333309505,-7.558321680999999,15.859075044,-25.303588774000005,-16.1261603124,-4.5599991410000005,-17.880331542500002,42.206319005999994,24.588056049000002,6.720128183500001,-22.758440520999997,-14.6113292666,-19.143816338000004,-19.086397093899997,-40.0920696473,11.1964108614,2.6255527333999993,-31.227170963,13.501547176699999,31.1178603359,-13.011905849000005,12.932350442999997,3.5558583899999996,31.131646518,43.2167168985,11.126271246,13.662079932,-0.7397322648000002,-32.168765594,-18.217046544999995,-14.787888385499997,-4.44349837635,-33.8872805659,50.337377864,23.680706937,-6.261681309999999,33.90177843000001,-5.187703648800001,41.1650966817,44.49176434900001,-4.670662719,26.1385914122,39.747321392500005,12.808760209599999,-0.7817892829999998,21.9708540584,-2.2013216509999984
ME 27,-17.268484445,-26.352239251,-8.698026221800001,-4.61434765,-19.729927053859996,2.0447630112999997,-5.511763638,-2.790786804,1.5668834068999995,13.471279478000003,-5.910561874,1.3028856448000015,-2.498955684899998,-7.086279235999999,10.066185595999999,0.27582148099999965,-4.109273340799999,15.625096021000001,-2.8209537599999988,10.496846885,-25.149880197399998,-11.738288181000001,-9.548578150500003,-8.863752257,3.8255584199999997,-5.5769816904,20.016402622999998,-3.3367473076000005,6.614632116000001,-8.563836910000001,19.503784099999997,2.766172525999999,6.582146836999998,-10.989194368400002,-3.3288254260000003,13.775634918649999,-4.8989337740000005,-15.481941079,9.499378122999998,0.32844698010000073,19.924933016000004,22.661340312500002,12.936244815999999,11.410111647299999,-1.9721417354999997,-11.840131337000003,-6.652474728,19.322786956,5.151979386400001,-14.507052425000001,6.81292454,20.198551730000002,0.19816078300000028,20.896057249000002,9.189027227,-4.6063752383,10.738897755399998,5.893455540000001,5.688282386100001,8.050919661,9.212902215400003,18.881541903999995,21.547991698000004,15.136584681
ME 28,-2.7279050100000015,-7.075953626,-8.238625030000001,13.279057627,-5.937313713,-9.120187892999999,-3.177633991999999,1.358115870799999,9.476405955999999,12.030584167,14.231454276000001,11.511412282000002,4.1969714391,3.662515368,-6.0933973762,1.7996994799999995,-1.0525451662000003,7.452891591,2.2989164770000006,12.759359175000002,-8.818706445,-9.303711057999998,-0.4503521700000004,-8.8509182322,5.2261762140000005,1.7429774093999995,5.5036031329999995,-7.768235819999999,0.3668270874000009,1.0799838044000003,13.528095482000001,-5.04842776296,6.328139818999999,0.26728687299999976,6.817901725999999,5.4943222380000005,-8.185779405999998,3.4348996349999985,5.593994823000001,-5.2333305415,5.369998593999999,3.9813853129999996,15.007699789499998,19.779620493,-2.202372218,-9.068760415,-7.976515814000001,-0.3677855609999998,-14.045220132,-5.536922999300001,0.8753400119999997,13.661172916999998,9.639062618,18.147276332,2.38576974065,10.4262958755,8.513595686999999,7.600927939,6.007229562400001,6.6636063703,12.339437379,-3.399161206959999,4.282108625000001,5.716086519999998
ME 29,-26.821342550999997,-5.152850127000002,-3.273673725,3.151449793,-8.909028975999998,-15.734915980999999,7.462522078499999,-9.980570997000001,15.847763952000003,23.315395044999995,13.4100570296,19.140994253,4.437828380400001,-4.3182766549,16.0212379028,-0.32452098499999915,-3.62035774904,-10.484089143000002,10.253386585,26.634186278999998,-23.2099371815,0.8114382320000001,-7.151455285999999,5.76859206,-9.3176308649,9.025705972,7.283149197399999,0.4839166189999984,-0.3414938079999996,1.658125554,0.9689226079999997,-19.295106606,18.700511153999997,-18.6553330926,1.874760856,6.0396546166,-5.3016251647,-8.386270743,-1.8285436829999997,7.447717257860001,23.190696400000004,19.839715212300003,20.919022866,25.115114698499998,9.5355569668,-9.4547582558,-7.429854819,1.1392323299999991,-9.5152196674,4.029926453000001,7.3375522329999985,29.5865131093,10.426286574,22.99236005644,6.551209959,8.4173721356,19.658999486800003,0.6588672609999999,8.293703622999999,17.8866456285,20.057385541,3.758460115299999,10.912446751999997,3.2418189539999993
ME 3,-4.978448577699996,56.5953972035,-21.2733662588,16.1173615302,-48.2860675876,162.4536762498,-60.6818602468,-10.395755536750006,73.1428002179,-133.1327704127,-158.680476338,-41.8086245178,22.820417165400002,11.808177972160003,-124.32761698120001,11.587553262530001,-32.759654231270005,120.52191372060001,102.3759139186,22.555185399600003,-96.95351560423998,111.56479229949801,61.862029458600006,-356.67896588925305,11.555499917399999,-218.55326119958,115.86187234666002,160.4956891079,35.05668456314001,84.981826224,153.0284310595,253.38944917150002,-22.509456266099996,25.652897642630002,-217.2133722868,-58.37266233580001,-180.77863633665999,-218.8545567072,146.3743275703,-319.5901832966,27.971890809964,202.6678227207,-17.601015138800005,-246.0544749508,101.06229560095,-132.591304270145,-72.63734129230001,409.9999587161,169.84546810720002,-13.565497235700004,-4.905806269700005,-80.32252285499999,300.6141261426,-60.571531077494996,9.990718814800003,-10.451158482400004,50.429988698799995,249.2737552502,-159.8697553558,230.65057729273,12.871819667270003,135.0766253938,151.11888236352002,119.8276393064
ME 30,-17.362784099,-3.0051959835,1.1192261663400003,11.619795332,-8.243897644299999,2.577609065,-1.2323398379999995,-9.847240274,18.45198511,15.6763867737,-13.688949421999999,8.527793800499998,-10.927241541499999,-6.533701226999999,12.958192100000002,6.460894200100001,3.053593578,-10.335963900000001,12.213187217,25.36807251,-15.947321782999996,3.9921782776,-2.8847585612,-11.567146838500001,-15.8554224055,-13.860322845,13.636010784999998,15.541393621000003,6.5965213353,10.241423268999997,5.495118868,0.8233678355000005,16.4115993678,-10.197541969999998,-7.715580269699999,12.990270344499999,-14.546697081000001,-13.806412280999998,16.040630795000002,-0.8128737590000016,14.721174417300002,22.379028922000003,9.471153184999999,12.515322972,0.46745349000000025,-10.4552408031,3.497115254,15.194844553000001,-4.5359897906,-1.0053770889999993,4.062481878,15.67244046,20.067899043699995,19.374885936,7.322294101000001,1.8759044277999994,12.067049924999997,7.659375874999999,3.247461554,7.556151641,14.010306368,-0.09093845600000028,3.178870198400001,9.959281637
ME 31,3.888296584999999,-9.393673493999998,-5.466476732,11.9559396344,3.8550786020000003,22.241523383,7.605340974,8.256747187999999,14.170983548999999,1.3347222879999991,-11.486760651,-19.035851266999998,-28.443032716999994,0.35224370210000067,-10.6119177257,-7.479786433999998,5.96934014,9.394749848500002,-12.820725886999998,-16.162647574,-11.054120676999998,-13.1763175668,3.7194866344,-26.798969837149997,-3.2275382701499984,-10.067470792,20.398140532000003,-11.775857247000001,4.6620668556,-19.991131139,19.185648153,4.447741541,-1.1861171050000003,0.13976423500000057,-4.007412166999999,8.154009401999998,-8.009753045,-1.4413188639999994,4.030013810999998,-25.823361491,9.9691647075,17.423964504,5.773790574999999,5.506874872399999,-9.500707986,-11.643509802099999,-2.7861887095,-3.7602345989999995,13.209460558000002,-15.943050994199996,29.7937589,-11.135089166999999,17.32254770999999,-7.683193960000002,-11.893830574000004,-5.613286114,25.367798289,21.362533968999998,-7.649676112000001,-3.0979006075999993,3.1762924189999993,22.304457909000003,5.404463191,19.839890906999997
ME 32,-23.234589860000003,-15.095979152000004,-15.624195962399998,18.886470062999994,-9.183901642,-0.19148981399999976,8.207037778000002,-26.595336341999996,0.04422031100000012,17.632626368,7.332957007999999,-2.345469109000001,-8.969514063600002,-22.897877527000002,-0.23612946099999949,-5.528136667,-12.312418232999999,27.8679917883,6.977359499699999,12.48798042,-14.782544586229998,-4.687165859000001,-15.321130857299996,-7.729554088,9.059979823000003,5.564143191999999,-0.46164291649999867,-12.657722501,-7.514482669,1.3173470640000005,-15.341038072000002,-23.124475692000004,13.193719816,-10.813126589,-18.582687128000003,2.1681149928,15.103023944400002,-14.638450608,16.511994634999994,-4.58335039,2.933117686000001,24.570485383,15.533540004999999,12.050152273,15.052063275000004,-19.883932703999996,-10.240614949,8.354224667,-7.7165111937,-10.940500361000002,20.963244435,25.63300318,8.433949894,29.304716600000003,-5.669871216,29.257370625700002,7.6344624245,13.355591494,7.758725955999999,8.413725680999999,18.3006113766,-1.6587048020000006,22.1348139435,-21.986411928999996
ME 33,-9.098058149000002,-4.756421903499998,-21.5563424782,10.650410839,-28.755599549999996,4.612139557999999,2.4151041236,-13.471745185,-4.3271988189999995,22.074817476,1.7638614709999993,-1.2966679406999995,-0.27080320329999963,-18.520888377,-1.6169081650000008,-11.336560991399999,-15.011971851,11.33140911,1.9083579321999995,6.4013995590000015,-27.961741122,-2.5231814449,-20.83435054,-20.11222095,1.0312831779999998,-8.260616983999999,7.473377276,-13.918933353,14.3480524545,31.935697189199995,6.2187425780000005,-10.56556507,11.195381560100001,-21.912988803,-9.216429521000002,20.746770906000002,-2.2224724329999996,-3.3427709059999993,13.205191868,-0.21184646499999904,-8.795435660000003,9.625079243488,-0.5809984284000007,-2.160921978999999,16.465647117299998,-10.772582876000001,-5.2186228660000005,28.611649867999997,-4.636978015599999,-11.879512854696001,-17.910161876,50.875064137,21.437716686,38.572911919999996,5.508093788229999,26.302822781600003,-21.803987299,25.652074102,1.5196969890000014,0.1951799379999997,20.419524807,-8.218363883,25.704042412000003,-12.411748636000002
ME 34,26.335484398,-5.447453939099999,-19.953849586000004,-8.591969494999999,-5.352450579999999,31.846395675000004,-4.669750377000001,23.885778744,-11.4923083344,-2.312858570699999,-18.449395615,-22.305503340399998,12.160116686999999,16.158253272,-27.1360036792,14.432255923000003,-12.337090564999999,1.8190095080000004,26.625306080300007,-4.156471327599999,12.710384449629998,16.993642621499998,0.05756313470000094,-31.954976915,10.352226039000001,-4.100198265,1.4009506640000002,7.165846242999999,-17.3045759768,39.340057935000004,26.849033419999998,16.839411844999997,-34.290541421,-9.541997131,-49.1352554587,-4.5569985242,-10.006788717800001,-15.580973224999997,7.1282253314999995,-39.88057332060001,-31.151583291,2.1737234021100007,-26.487345805,-46.3333560905,42.5280717775,-8.346053703339999,-4.286447698600002,39.804480983000005,8.8300761343,-15.966591323,-2.0932888911,-20.054218982,14.942302999999999,-20.208509113,11.580196810999999,6.472640886,-3.014100486,30.118352979,-38.047370662,33.2920637545,6.600367806,-22.181576784999994,-21.51160154349999,-2.674961107999999
ME 35,-14.787592333000001,-3.4153423200000006,-8.2668146589,9.937711302999999,-10.9859260775,-3.861576102,-5.001743825,-4.6652288525,0.477458664,8.4336427916,6.1729027816,0.8099375272900002,-2.2855075550000006,-3.8022626768000007,12.074582220400002,5.126294353,-6.509207421000001,-2.001976514999999,2.0673111539999995,14.561554832999999,-4.398239815,2.0868715749999995,-7.1221301134,-3.0925856610000007,0.8536274989999992,-3.9604567058999995,15.812628143600003,1.2537996329999994,4.5666929673,8.319863520000002,10.539769905,-9.029404065000001,-1.9236915620000004,-8.968894552999998,-6.735698132,11.770314943999999,-6.1785615190000005,0.7713152189699993,8.1799956399,-4.804972608,3.2210579809999995,20.24307882,16.351909881999998,5.346719993000001,13.298702828000001,-8.075112637,-5.834072010000002,9.028412593559997,-6.961356376499999,-3.050895315440001,8.1174600738,16.39852576,9.106304765700001,20.775927496,0.744017149,5.447814178,-4.6539738988,6.7260284530000005,2.2107112539999996,7.188563990999999,2.6640804659999997,-1.3301040370000001,8.123898419,7.8545363450000005
ME 36,-20.684790818,-12.107481040300001,-5.110317435000001,9.136721904300002,-3.6852724699999992,-13.757519538,2.9149858830000013,-13.4022418614,-9.6332107907,8.56203342,3.518905643699999,4.230513672,-9.021759256000001,-2.537698153,-2.314283106000001,-0.5361795999999999,-2.237764082,12.383842929400002,-8.0986900055,2.724648933,-20.2432826098,-4.659128797500001,-6.3290214780000005,-14.607804822000002,5.623774528999999,-3.2763660910000003,11.881077866,0.04688302000000033,9.4764178965,-1.2372319830000003,1.3842936449999994,-10.719755452310002,7.344114939000002,-5.933268407,-10.735735063000002,2.6905293499999994,10.512875564999998,-4.186277951,13.150916941000002,-8.306173338000002,-3.6521656380000005,17.459242680999992,10.808316995000002,5.290068517,7.662543480000001,-20.9792630635,0.5608933700000003,10.743589285105001,-4.2670625931999995,-8.9053851827,20.120643030000004,19.9628660005,23.97757542,11.768595374999999,-6.381515111000001,9.633737385999998,-2.4127012710000004,15.155221316999999,5.773708745,10.109546638000001,-5.79812774,6.685352794,10.792606962,4.146913295
ME 37,3.147587130000001,-2.308628022,-3.201613987,14.616181625000001,-17.603674367,0.8715851070000002,-7.7382252412999994,19.573952220000002,2.743342622,-22.393453472,-17.965318259,-5.4671461993,6.493766575,-9.3067504222,-1.4357350489999994,2.9655299039999994,-2.172685776,16.191462513,6.08729323,2.7818496010000002,5.707798845,5.0307608660000005,10.34270588411,-25.062871180000002,-1.294031935360001,-2.179540753000001,11.618922325,8.8741835094,-2.5090802699999992,8.203896055000001,6.079723638999999,7.621033402,-2.747743577000001,14.056540495000002,-3.0672397900000004,-3.898319788,-15.600887504499998,-24.171186450000004,0.3103454105999993,-12.083020698299999,14.794058128850002,20.957760292,-7.086681273000001,-6.6511259030000005,-9.012818712,-2.5547830595000005,-12.5457709245,26.855036553999998,16.759409648,-7.942864767,-0.8959179113999999,-11.017998756,1.641816476000001,14.311265023,12.471077104399999,-5.4215555745,1.0661534599999993,4.847630489,-4.337800372000001,29.928931497,3.9436158329999995,2.939648902,23.665799285999995,2.680680013
ME 38,23.794027343000003,-25.108394440999998,-2.7768957820000004,19.3686293917,-33.555951668000006,19.283335982999997,9.226715244000001,0.8319660929999996,11.109325057300001,-3.6696734556100017,2.276457413,12.478749376000001,-8.159990671106,-3.237189573,-1.139907702999999,-10.992385053999998,6.619985164,33.104507516999995,-7.184246120999998,2.4810196589999993,-24.443531969000002,-10.88773961,-3.9468860398,-12.993329699,3.750370904400001,-2.2594784146000007,19.069950816,-6.1549144272000005,-4.2532007766,16.718261225,1.1231606039999995,-13.184962368999999,18.727016225699998,8.88462409828,0.8014741580000015,9.573219331999999,-16.856399980000003,-16.369961420800003,1.5437918819999998,-9.281551158000001,21.216825337,-0.4465800419999999,0.31758902000000044,-9.032754191,-14.387518107,-22.017553106000005,-16.629860849,20.161511758800003,16.274910235,-14.45003862297,-15.496051594299999,0.1887322200000009,11.85091336,22.049469763999998,-6.3534276045999984,-2.623952587000001,-4.59269596,8.205695745000002,7.912611474000001,15.420503164000001,4.650408498000001,10.404570817999998,38.479043328,-6.376461720700001
ME 39,-15.642990230000002,-7.785641812799999,0.6111954244999993,-2.7643655380000007,-7.675579133599999,3.6285179919999986,-1.0784628474000002,7.944110552,9.351203245799999,13.785222702,-2.353625524,-0.6650979250000001,-12.187201685000002,3.1148122339999995,-1.5407890430000006,1.0045283784000003,2.5325521642999993,7.925320189999999,3.3736348751000005,9.488881820000001,4.5549163120000005,1.3036832339999995,0.4027562730299998,-4.1098293814,-3.4899178075999995,10.0125120577,8.187071352899999,0.33201604039999943,-0.23175489400000082,-14.511363667000001,11.229552016000001,-3.3383293519999997,6.428804700000001,6.475831385,8.416050221,11.5653616175,0.9016657917000002,-1.3972080000000004,-0.4918015160000001,-7.152339067,14.358190710999999,11.690932862,2.5372647674999995,18.211059775000003,-4.6742989825,-1.2118201819999994,-7.4257835750000005,-3.3854315296000013,-6.3830304387100005,-2.2049086833650007,5.519791549,4.82887732,0.13940750000000018,10.3522705433,10.18336668,0.4537610124999998,19.682957471,-3.710259395,6.867470539499999,10.34791744736,13.047904021299999,10.740295210000001,-4.161354051000001,12.651974947
ME 4,76.5777840347,94.14391498436001,19.135819307160002,-144.3796041351,135.2345984882,411.62706517370003,-122.61566285410001,142.208998209,53.77548590800001,-108.12429580050001,40.463224825000005,-141.69522619189996,-110.8466630284,4.557157363559998,-114.73234824829001,168.2854238848,-31.898855617829998,221.5046032484,62.3704453515,-139.81644963203001,-181.54434678570001,56.3361179075,-132.8055821615,-178.4334287998,163.6371422904,-138.49264084708,49.6067138163,218.06424807934002,-8.252155930480004,267.2011293344,160.7542279877,442.98886650220004,1.8782358029000008,42.947967316500005,-32.430576113725,-4.10704347826,-100.79811167220001,-169.7626204169,192.04623232616999,-124.22300143500001,-29.311717457899995,125.0114585133,-19.266116720532,-275.2783011634,58.672274179750005,-111.27380763240001,-150.9271447631,181.48153381514402,108.20743267412999,228.2834998684,5.508684715309997,-252.0904451839475,96.16147110200001,-116.5101884494,-162.66310674847,38.0463019852,-61.0510217936,206.3946134157,-152.26396601495,314.7166897116,-67.22460850556999,-136.35651417909997,0.0955599472030042,-17.812370233099994
ME 40,-9.064828047999997,-24.647946058,-2.11806422823,1.8498516903999995,-3.5397397265,8.159372870600002,-18.567598572,-23.887310625599998,-0.37522168450000015,-11.658973288,-20.2921427315,9.939611292,15.159906537,-11.2091383,-1.2895463137,-4.0836544560000005,12.48087153,7.220771861399998,1.9599422584,0.4299474856999994,5.3329308634000006,-2.5256842589999997,-1.0615327506999992,-35.535366256100005,-1.6832686579999998,-30.52555164,9.568543839970001,15.390965401999999,1.9371786666000006,-9.647766456000001,1.4122061251,26.962648134000002,1.6886318419999995,4.228693925,-38.1298972116,-5.915037037,-8.816801961,-13.155934259000002,28.419592849999997,-20.268463218,12.038058955000002,26.141305505000005,-4.3770230739999985,1.57989187,14.522838633,-3.4862554979999993,6.535088488,46.83571083500001,0.4191053629999997,-8.499836789,-5.747516493,4.1245219443000005,25.820180794,2.6802918411000003,7.3336244751,0.08642025249999996,3.701012997,20.621908494999996,-5.612497900599999,20.47419779556,8.598147274,14.189170057,25.88714315,4.910102114800001
ME 41,-14.479447172999999,-14.33565047,-8.877156064700001,11.636340131999999,-5.011856099600001,-2.57116762,-1.642861269,-14.124409392,3.3386508409999998,6.989570595800001,0.9258985609999999,0.23430210900000015,-7.225634746,-5.418796662999999,0.4437722254000005,-8.964184918999997,-3.3148572499999993,16.1643516882,-5.411199443000001,19.231791944300003,-5.514532620000001,-18.231156283000004,0.9895539680000006,-19.1152334782,4.025145664999999,1.0666107290000004,7.7259750149999995,-6.170498124400001,-0.6593960749999996,-6.878035769999999,5.1005812865,-14.827921012000001,0.5423945340000014,3.0571504780000005,-7.535263844999999,4.977685164000001,5.51436334524,-8.24884792,9.699015038,-6.320930834,9.501716163999998,21.82680927,6.046401970999999,13.731667226999999,7.3142639869999995,-11.169505010000002,0.5215066153999999,12.465917006,-6.856860720000001,-8.822660005,8.326232686,11.379410029999999,9.469823920000001,16.314426716,-0.9122249884999998,10.802922869,7.1629245445,6.1636355409,7.870676811530001,8.064149984,5.803443590999999,0.2756873399999997,11.3483199275,8.97710068
ME 42,11.77088328,-12.02041504,-6.2312046610000005,7.406921506999999,16.781051432599998,3.5952358810000007,11.029771080000002,-6.474326296499998,11.795530220000002,13.338025494999997,4.825805548200001,4.382569029,-14.235594070000001,1.8714726029999997,-6.905031374500001,-5.835727210899999,5.027090365,11.268388411,-14.832058555,-2.150542433000001,-22.015538959999997,-26.296075392000002,-2.106824138000001,-6.481894417999999,-0.4624304510000004,3.4208374850000016,8.558001636999998,-4.51644428,-4.264234611,-14.144874906,3.6752389150000004,-12.730707914,-4.51225361194,-0.03339869300000059,-4.063633415999999,-0.6905980899999998,-5.0330963182,-6.657717352999999,7.972733384999997,-13.043972182,12.773283314999999,6.1078692619999995,10.779037592,23.951566479999997,-13.3559154435,-6.6677232457,-6.304542239999999,-6.164170349999998,-2.4245785422999995,-10.023174232,15.236285215999999,-7.098711317399999,9.50176992406,4.405310804000001,-23.720025868,4.816741505,16.215076050000004,8.241690343,9.338291970000002,12.217265921,9.4255874868,2.5275075919999983,4.752276563999998,14.839737886999998
ME 43,1.6265774354000002,2.79846313672,0.7437958599999996,1.8371594805999998,-8.817873702000002,6.029778318000002,-1.8312335113999998,10.81944477,5.1517300750000015,-0.4275179869999997,-0.9188588470000001,-6.3141231719999995,-8.102505401000002,1.7948870669,-2.388952134,-0.27905887700000015,-5.9167316205,12.4326455504,-1.2777046585999994,-0.3630210580000017,-14.491972349700001,-1.032476554,-4.868832111,-14.424984561999999,-5.973860578799999,-7.927903962,11.334780870000001,0.6964347610000012,5.968367364000001,2.6303963460000004,13.744899448500002,7.144748730999999,5.558056016999999,0.349950146,11.491502688,-5.373864311700001,-7.350164402000001,-18.381138124000003,4.2247919755,-19.306063612,8.566661078000003,-1.9814225090000006,-5.4151380569,-7.953611204999997,-11.485591169000001,-12.231098399,-3.7260349689999996,17.657437078,17.596752861,0.8206937649999999,-3.6937860909999998,-7.296621604499999,4.536311574,-1.7977087349999996,2.8300570890900008,-7.949739294,-3.4248085639999992,8.560235220000001,-7.584203075000001,4.5212875711999985,-6.7235586162,8.212949306,6.940032610000001,9.367473174400002
ME 44,7.196277150599999,12.082893141,3.9729254299999996,-8.700639774999999,5.3491622,18.473424495999996,-9.962746611,11.842342624999999,5.095793961999999,-11.593930660000002,-2.7569233319,-4.481291422,-5.0650361753999995,3.3609085553000004,-14.515408224000002,6.9681133939999995,-8.0631028786,20.99171158,10.482213666,-1.1152255752000002,-15.30958017,5.272601904,3.2547443100000004,-10.543736441,13.787099584,3.9045254529999998,-2.765422368600001,19.9934313627,-0.3697096995000004,20.03701873,8.580904948999999,25.816698278,-1.6754771239999993,8.655267631999997,8.666455721999998,-7.5827486560000015,-5.5858802236,-14.795623795999997,-4.00708189,2.422138643999999,11.569601423,9.865054669000001,2.168711239660001,-18.6028506991,-3.7593660999999994,-4.342781034000001,-16.982986697,5.937579532999999,6.959221756999999,11.506114878,5.4538866524000005,-19.357927335,1.629842714,0.19261500200000042,-13.019057125,3.639073874000001,4.9993484845000005,6.045736925999999,-7.6495929600000006,28.964485907000004,-2.6750808149999994,-10.35844822,6.12421177,1.164757565
ME 45,-1.4590776269999997,-8.025908080000002,-3.6445968507999997,3.1579965299999997,-8.514253691999999,4.811461607499999,-11.999320338,-4.8423329303000004,2.499364216,-1.9121820395600004,-2.6375354789999994,-3.2687742600000007,2.125139880000001,-6.5308835730000006,-0.8149183180000001,0.6108136019300001,4.572434283,5.325329065000001,1.2389215299999998,-4.556904482999999,-0.3709189020000012,-3.0805256975,-2.3514626310999995,-17.171212538,-4.493466608,-10.282948397,9.225123007999999,4.791646852,0.44687276199999976,3.495317331800001,11.672510611,9.2604028214,-2.3409444230000003,3.878050085,-9.400915906,-1.721877123,-7.216902329,-13.480573188,16.557924015999998,-13.576577194,6.598534687000001,14.201455032700002,-0.4350796839999999,-1.198483309000001,2.269318421,0.030738489999999813,1.1484054514,19.179256028500003,-1.9570095554000007,-8.103275818,-0.3636746970000002,0.6476713909999995,9.83336031,6.037015296,1.8184063253000011,-3.58116378,-1.6464189749999996,10.559536635,-4.467373920000001,7.107994339,5.23484243,6.904803105000001,11.714160831700003,5.239649544
ME 46,-7.509779786000002,-2.5200564150000018,-6.439213904,-1.4353744300000004,1.8845312039999982,-1.9500891099999993,6.846933663499999,-3.29569228,3.0217594999999995,6.7483406554,7.0037112069999985,-0.7519533909999996,-5.804839897999999,-2.3474079549999995,7.354797345,1.723332946,0.6303748316999997,6.131510845,8.029126442,3.975659172200001,-6.911606300600001,-2.7210105098,-8.831606816,-6.328131634,-1.8570817383999998,-7.730583934000001,7.1143864510000006,-6.336120210000002,-1.9685924995000004,-1.2903342829999993,8.517126529999999,-0.9626187214000008,-3.6943778350000005,-2.712597737,-3.512104241000001,0.11001646780000043,-4.322107625,-10.732709595,8.150428169999998,-5.703972755000001,3.8964949910000004,10.9774690891,-5.6191804124999996,5.790247344200002,1.47807021,-0.2586397050000002,-4.532094818999999,7.961957738000002,-2.861840911999999,0.31994371999999954,6.0303917259999995,0.6210154550000002,0.306631085,12.29503937,5.893031070999999,3.1862792326999996,4.910430345000001,5.365600386,1.3623865130000001,-2.9100998,5.294953999000001,6.640186549,4.315875040000001,4.918296209
ME 47,-8.165614617,-7.341315412599998,-2.705409573,-0.71942769156,-4.4107082669999995,-2.680553426,-7.487533634999999,-5.02555573,2.9018732223,10.868993689999998,5.114878493,-1.2686289710000003,-8.5648543073,-1.4402222809200005,4.449696446000001,-8.593460674,-5.498628404000001,12.643606222999999,-6.042549473,9.42208711,-6.484170891999999,-13.579887786999999,-4.1978365945,-5.310290332999999,3.588371445000002,4.067928977999999,9.659207606999999,-2.9290874139999996,1.3852855359999996,-6.701082975999999,9.023926941500001,-6.7917986838,-3.737810419999999,-0.4885222870000001,-0.3720826220000011,-2.9096531910000003,3.9286784040000002,-8.9642172882,3.774674751999999,2.7794118560000007,9.578091861999999,12.899214234699997,4.295501734000001,13.568854003200004,-1.9306954349999987,-10.123037380000001,-1.7045033570000003,3.8642398659999997,-8.666721917,-13.052749947,8.9573866472,5.063975124999998,0.7667278620000001,13.234750955,-1.3703350600000006,-5.114227472500001,4.9160695919999995,2.8882697879999997,5.618878905999999,6.1312356470000005,0.5001182619999991,5.695227291,5.541778164,12.775909495999999
ME 5,-5.723733993600005,-203.529408487764,-140.5094312435,84.28203977460001,-89.19998878898001,55.7566337071,-5.260312796399999,-61.720660869099994,69.41827085006,131.7374592767,-45.0781661605,-10.2450335588,-56.9621923661,-85.1389523913,28.6104610872,-59.327984298100006,-52.95458119599999,94.3104251657,20.558063073799993,127.85881822774999,-108.3920865063,-95.2275156168,0.938054377499995,-87.0000882103,33.81494852179999,-36.155925657400005,92.3759025538,-45.641165392030004,-6.028123860630002,-29.475108056499995,30.429816773,-72.46087052369998,6.266428032000006,-21.0920131554,-54.84544222862999,84.0215935167,-26.485263477299995,-56.0160532192,75.86898236440001,-67.9031602406,160.4861703221,150.617641763,108.049238635,151.75661721650002,37.06671918819999,-51.9566289568,-73.2242358867,50.6393881508,-23.233721354769997,-101.5173894241,70.80129925080001,112.87002578996001,69.3884564291,180.446352552,-36.555878653799994,72.3472321025,138.95588877598001,45.5824636817,53.09728450370001,76.52800313360001,123.3170961653,73.1669533395,142.1604782582,45.147391514
ME 6,41.8531778102,34.657996593899995,-34.952016987600004,-86.1180829234,96.35425408399999,197.95673202186,-82.9773161938,175.39539222165,13.551513866700002,12.7225358868,-16.9079654485,-120.35020516270001,-36.986165402030004,16.082430534900002,-116.89459694330002,148.3026813486,-24.901037912960003,53.8397512195,52.6760156192,-14.181352125000005,-45.869843805500004,61.11121569000001,-29.6315725736,-139.16605163100002,31.741375938809995,-107.89768167437,15.296118185200001,136.23404420846998,15.926045707799997,118.64410318150001,147.2831171515,156.9592705118,2.2112361262999976,7.401103577399997,-48.2672400295,39.503216662,-74.3037133986,-101.11443557166,118.54473552740001,-128.8320493766,-84.52967629013,-3.4170630153999952,-27.355187918500004,-162.0856794037,27.640781615500003,-3.0475007173999966,-112.8586382156,157.59163177957,99.3370775997,81.07402457730001,-24.907916203499994,-95.9518277798,56.52583158239999,-88.22153489432,-2.136986819200004,1.627247429630005,-30.9680044245,52.394225750900006,-146.46994455598002,213.4166606988,18.4793536508,6.623738179899998,-4.0957168410000016,97.4074751688
ME 7,-82.18113805446998,-126.67351677959999,-85.90073535279998,49.75748603700001,-104.9562733617,36.1395709806,16.969958297799998,-96.37157809508,-3.6781990674699987,83.40375943650001,-47.7146924902,-37.3940167059,-67.1930182574,-70.8618311543,11.718827540299998,-28.56082135727,-47.833948846,156.6459067339,27.273150883199996,82.4797332498,-106.58205181273999,-41.1693890519,-61.123405990500004,-51.228805748759996,76.9602426587,-15.712037212599999,66.7754592184,-45.8314442776,-13.808248039999997,-30.929559576000006,17.747586732899997,-44.14412680900001,29.9511848792,-25.312541011799997,-79.6110354881,86.88132854082,20.987824411500004,-72.8017216395,92.1525450062,-29.844262932699998,70.5394618081,149.8458903904,104.9743949125,51.0795044475,40.48389982290001,-106.3828958935,-39.8214630722,49.8017758466,-28.2563995455,-72.0196574524,147.847626439,94.9576647137,21.6921883667,125.5950245648,-22.16507724297,77.15638665789999,79.57434516674,39.3315027433,54.6246664049,59.518916575549994,50.473768368799995,42.4745833922,94.92501692785001,9.308791592399999
ME 8,35.2358555573,-138.5624714301,-141.095765452,122.0268364319,-150.20442198299997,34.093341981,11.382446077599996,-71.6577301749,13.247571890099998,123.717449576,74.59688369,53.826666781200004,2.152445661999998,-102.03681539553,3.8104170493999967,-92.8693440205,-102.255385811,230.86468342700002,3.0731767990999987,65.37368435000002,-41.3086580191,-32.8323500197,-72.2989654873,-53.208976643,43.265195342889996,0.7501577636499981,-68.7171869396,-131.48204138650001,-24.968147083700003,112.68705663680001,-97.59632005750001,-159.7179690905,80.0185788318,-29.101831153200003,-28.456342379299997,48.373730092200006,-4.230676496999999,31.59930561815,80.2181207216,17.30702264,24.729328287999998,-35.92677578450001,-6.139271608560004,49.689676033,28.6154900752,-64.9956026424,-110.001641566,106.2264369564,-48.5063426313,-77.6983144866,-110.00407209,205.26716691900003,28.606106103000002,202.254472526,21.9719718297,155.23014519359998,-29.4380371293,55.215680077,50.323880271,36.2534706623,169.6558862627,-70.6476249997,195.099496201,-137.23936445150002
ME 9,-35.41035044830001,-86.7185566991,-59.9456575083,62.57096104360001,11.681929670999999,4.2232551854699985,41.861265544839995,-34.644607859,41.109100131299996,60.522346145499995,0.08792851750000175,-1.3193201463000026,-54.7546414043,13.408359177799998,-26.8541019885,-22.061071992900004,-17.5076036141,68.740493555,-18.7796510633,63.2425017538,-66.7432016326,-69.3134010639,16.458938678999996,-60.01473441729999,61.60365678053,36.2861773076,45.812349380600004,-13.695592033499999,-11.066857439200001,-57.0488963998,4.468747841100001,-65.8014203688,3.6181117275999966,20.464423512742,-16.8729155072,43.8638791688,4.204475321599999,30.894665657800005,8.415879909700005,-57.4202316307,59.73329883356,96.24708914157,66.5903841622,93.55233895890001,24.350075568500003,-64.9661106026,-49.582603089399996,-39.7744988081,-30.891203981849998,-37.9229817488,86.85919503,36.74041090838001,60.97182408510001,68.91857326504001,-57.6431606044,82.04729340879999,95.14916796060001,40.9018052805,39.871084627100004,86.7481179948,43.485821079946,-2.0960632712900003,13.876654097499998,37.8631129293
MGL-3196,-0.50966024,-1.0064813,-0.89848876,-0.87210715,0.51264006,-0.08675898,0.6678193,0.7127888000000001,-0.56802064,0.87654066,0.10628761,-0.00081093743,0.44830212,0.47821108,0.4872352,0.34557998,-0.34343678,-0.3994542,0.24820277,0.5075092999999999,-1.002059,-0.6348258000000001,-1.0335461,-0.20923229,0.2999075,-0.95006317,-0.62274134,0.19602546,-0.056857925,0.014183647,-0.66065675,-0.082438186,-0.67508024,0.20331211,0.7637989000000001,0.75057733,0.04862388,-0.19543031,0.80715156,1.056251,-0.26558495,0.41244468,-0.5337269,0.15315941,0.20547342,0.5828327,0.086188294,0.40364218,-0.4862191,0.58877265,0.20638163,0.6478991,-0.4907047000000001,0.56950814,0.32750165,0.8758904000000001,-1.2115291,0.09496635,0.45407695,0.45014763,0.18936655,-0.50734115,-0.3851662,0.86984164
MITOTIC_SPINDLE,115.553993565,-160.9018255805,-34.5789709392,30.687443942,87.4897212249,92.746522158,130.26698918178,9.911095834800001,72.16308566699999,80.16395848399999,-137.6469246904,8.151411644999996,-143.70128865764002,60.625186672599995,-112.6388532451,-67.26031058909999,15.4480214624,23.544553354300003,-181.8790359606,-35.254858388,-133.7974612466,-79.6843085805,93.98856937049999,88.02266627580002,37.6607591354,34.2533361639,37.9090499965,48.8008744885,42.346416847,-166.574943511,41.506746034,20.065126238399998,30.559864466999997,61.00532085473,-13.474778024999999,164.41906569550002,-65.66290823599999,196.49416463899996,-49.005456585900006,-183.90686687699997,42.796689887,-106.1245415065,203.90446046199997,-45.48245476790001,-29.256942331999994,-90.7311591823,-72.4367087474,-114.91426417619999,110.484654701582,-49.10189087170001,98.0066816847,4.781822893299998,113.9221803438,-67.0936231,-218.371831624026,52.9759472575,171.7446752484,69.55262706573,81.2231915156,101.882993989,37.120457812,66.1662404664,-11.511409595,127.73429187760001
MTORC1_SIGNALING,-42.73247067,-55.6237783924,20.593806341900002,18.519770252999997,-19.2984076217,23.345335017800004,12.6517896847,4.461693121999996,-1.8991569528999979,49.358363901000004,0.11278290799999624,16.9652368689,-73.777419722906,-30.6207721468,3.6237302780000054,-14.042720767200002,-31.847592104,106.39206300129999,-32.7732431343,-4.770340161000004,-131.1718708886,-37.7804355694,-86.2185709069,-123.9313251515,1.9017497655000022,-144.7274789477,75.351284319,-5.418781903500003,13.7514837864,-47.9757444164,92.762614611,50.178012497,35.402545336,-33.19647392585,-25.5964442355,-8.240016688599997,-25.541926465560003,-116.29669867570001,123.11928324659999,-69.20429596701001,21.235804687930006,33.9594832,22.5224372737,2.840080201100003,-53.384595390799994,-102.6206301185,-3.8682107526999996,135.950223735,33.0704997539,-30.676313335969994,68.79915877463,8.1154028098,56.89038054700001,-3.384687381699994,22.5845681637,-45.635770908,-35.6614479021,88.52475257990001,-0.16322908450000284,0.3208476989999989,-20.6905930859,71.2811004243,55.30205826899999,50.7328569683
MYC_TARGETS_V1,46.855525191,50.7825680225,79.1511188522,-122.3603997171,71.1641146302,236.83635061229998,-7.269239308600001,181.62563002450003,1.12455848986,-55.01064528412999,-98.303120552,-76.77222059350001,-133.849103839,37.047001718000004,-117.4348655779,42.9049574566,-53.48092368908,203.399903218,-23.615204285399997,-129.357126948,-116.7692757167,103.067225723,-28.0358070442,-97.574520497,82.181539051,-78.33459563199999,13.438003846300003,95.57496405610001,-1.743476597,34.055845317,134.952989571,266.162418988,-0.4366315798000002,48.0368826944,6.472510410599997,-9.041523280500003,-38.7970469606,-80.01308447399998,34.49461695949999,-115.61002666201001,-3.4747370527,-21.246443838912004,-63.481694397000005,-253.12759858450002,-46.191282513800004,-108.68531127528001,-115.732399525,93.75417135715,187.34034382599998,86.281118003,45.321778501,-180.375526595,22.1608313089,-171.18938461875,-66.1495195692,-32.22653634460001,-7.607222610899997,108.4159860947,-107.06267951360002,159.8455540293,-89.3124279442,-18.233694642000003,-61.45999494700001,13.5287245114
MYC_TARGETS_V2,34.867219897999995,-18.779815103399997,-13.986176045999999,-20.069794760199997,7.6729558738,54.347248878,3.811219493699999,42.178153353,-20.003419889499998,1.7498831105999995,-37.597245823,-40.45758907250001,0.9275591889999996,22.5802837235,-43.34240135899999,17.573760523900003,-16.326316801999997,23.2030486203,17.101417633999997,-0.2927759039999988,6.473098196,11.486143529,-12.660428297800001,-41.6521586963,18.8431381896,-14.472323383300001,0.3590782514999992,20.116167286,-18.698424931,33.49779718799999,41.678537999999996,23.09245076,-37.9473473509,-16.3768087736,-65.51856889000001,-0.4819778489999997,-9.9280491023,-26.152190257999997,9.5148699399,-62.748685988,-52.4451746414,-17.0024508521,-37.135457467,-74.850077095,46.163945389999995,-35.1822080194,-10.4746339953,65.08394202,36.115940724,-26.087815772,4.0799113425,-33.248895967,21.424024833,-47.571755896,9.300804959199999,3.1805899991999995,-10.788233046000002,42.942621596,-50.361472497,50.7823778666,-3.016328174,-27.050518849,-32.2947621637,-0.19304509600000125
MYOGENESIS,-109.07502675219999,-22.8875905692,-28.582829831000005,186.8156898834,-76.9554626161,-68.84662979746,10.452027092399998,-76.58737178109999,74.2691789289,144.77642636299998,-35.723384683999996,22.97282173741,12.488426061,-57.23039989665,1.6522392980000018,-57.316117499140006,-86.429700413,19.429782144,-13.470262826656,172.4956299529,-75.468446166,6.8775489641,28.595571825700002,-57.759712805999996,8.378325735999999,19.57662389523,83.4231403304,36.74180330456,44.068366623399996,37.20912878040001,31.875117617,-81.28525851400002,74.4335468203,24.709143821399998,13.0093503786,54.906834309900006,-46.451689313,117.1878214744,51.255093532024006,-38.645388173,-26.207369417000002,91.1532604707,92.91750016399999,94.4085434486,93.778891245,-66.54958547064001,-57.32520277070001,32.2170343427,-70.34944994634999,-0.44553379125999903,-48.904091386,189.10345672539998,110.52130886700002,117.9822815153,10.708591080800002,108.570417566,-88.8567106311,65.06544586745001,-11.070986068599998,28.789810026000005,24.5018027232,-117.66806047086001,14.176451146050004,-6.740079045200007
NOTCH_SIGNALING,2.3524132190000007,-20.606136315,-9.127673298000001,15.42709225,16.7035223176,18.774995259999997,-5.3267269,81.77867066,13.048943285,10.571692214999999,-8.574702456699999,-28.852654089999998,-21.937316887999998,-7.817278251000001,10.993747302000001,30.118737124000003,-8.437516312,-19.224711229999997,-31.99331385,-0.27386919040000146,0.31031021299999995,19.46947689,0.11568554200000003,-12.224710322,37.14783056,20.205653750000003,-2.2602813840000016,-51.99258479,-24.461923038400002,-0.7374921919999995,51.72921024,5.721658174000002,14.584672303,16.045145242,27.899786510000002,30.559404701000002,-2.8159775999999996,9.337327569,0.8279881444000008,8.142702866999999,-4.202592329000001,-5.686045057299999,-16.968500532,46.013781656999996,-43.923259613,13.459591128,1.5428002340000004,-44.367162123,-5.786810066999999,-0.19300298099999946,-32.33858866,3.499717923000001,-13.108178135,12.6484945497,28.876300696,-10.774818530000001,-6.54500854,-8.622525311000002,10.092168529,17.44963852,25.90109922,-19.767393133000002,-17.7054871587,22.330079923
Nonalcoholic Steatohepatitis,-78.193168382,-45.600072188999995,-37.767770293,9.4119154026,0.3463423270000011,-31.116758935,42.993763020500005,-6.867810887000001,-25.329525279000002,60.43923774400001,6.118676242349999,24.988639261000003,12.083397955,-10.721897251,71.05033257,19.299657433,-38.85229821292,9.938575807000003,11.376939239999997,35.243326416,-46.32261983,-14.637158156,-44.77145027,-22.081238379,-9.780288895000002,-31.732072835000004,27.059417083,-36.7731169792,1.5725310924000009,-21.788808247000002,13.7696548007,-45.50632730660001,-17.498647969999997,-28.464985881300002,-2.476694640000001,25.839747786000004,-7.43379939074,-7.632585524,39.49604339,20.005650373560005,24.526439818399997,29.293070576100003,-10.608390894,57.759249117999985,7.868573315200003,21.621795083000002,-19.843248552,49.49968280099999,-25.887433781240006,3.9387689119999987,26.187876652,77.630050491,-32.070718625000005,68.355094297,33.76089355739999,47.179689411,-19.916958304000005,18.2971270733,16.701517076300004,-21.934083093999995,40.66493631150001,-8.267313176699998,47.2649101913,32.946339082
OBETICHOLIC ACID,0.41034052,0.032456305,-1.8908783,-0.47676176,2.3558655,0.14126293,0.49921462,0.15964022,-0.6129715,0.742809,2.6405107999999995,0.7667811999999999,1.0255114,-0.49786198,2.7142296000000004,1.326267,-1.0599947,-1.2995688,1.4067047,0.8197207000000001,-0.91860205,-1.4589818,-2.0032096,-1.0921978,-0.08614184,-1.9369473,-0.50550735,-1.3347303,-0.12675883,1.9346082,-0.063270226,-0.91529304,-1.298297,-1.2949188,0.23292245,0.11501791,-0.30131435,-0.21399050000000006,1.7649708999999998,2.1112392000000004,-1.0046161,-0.24847302,-1.1966267,1.122034,0.24370292,1.822928,-0.8833956000000001,1.6217996,-1.6171346000000002,1.1168591,-0.6094859,1.1850097,-1.1144326,1.8225492,0.32275265,1.3005173,-3.5350702000000003,1.176458,0.48897895,-0.99689186,0.83516824,-1.3129876,0.7885907,0.9549024
OXIDATIVE_PHOSPHORYLATION,-118.2301104997,-256.47845424950003,-50.2567950257,24.390423330999997,2.3306398711000025,-19.937115833500002,-109.05164764300001,-225.9838563683,-76.334591952,-60.193371556,-176.5774197646,115.10961075230001,120.8874072278,-88.8790459516,-4.567162249599997,-26.2989365354,77.90586849703,49.0700968,-43.831294532,20.3724767175,12.551596766199998,-54.86039508950002,-39.40898783999999,-293.71953512700003,6.2518167895,-291.7553524043,49.13542804419,62.546280871700006,11.537874480100003,-145.63537975730003,-4.6949889847,230.49804516023997,12.018643318399999,56.07490479,-256.683098606,-59.774312846399994,-64.7209180321,-107.550212556,331.57728539699997,-172.420129523,37.619950153000005,167.2884123353,-89.92271692700001,68.973131459266,111.86043076619998,-25.1651240565,108.0781411674,378.59790174450006,-20.527000590000007,-62.9954974629,-117.12115792294,77.017383665,172.24902641,70.902594362,93.70336440100002,33.1948680555,-29.598088858,171.497961917,11.894208785899998,99.85547100386,56.958946200599996,117.14589280299998,151.4974641908,67.4191299526
